{"learner":{"attributes":{"best_iteration":"52","best_ntree_limit":"53","best_score":"0.00653071677817972"},"feature_names":[],"feature_types":[],"gradient_booster":{"model":{"gbtree_model_param":{"num_parallel_tree":"1","num_trees":"126","size_leaf_vector":"0"},"tree_info":[0,1,0,1,0,1,0,1,0,1,0,1,0,1,0,1,0,1,0,1,0,1,0,1,0,1,0,1,0,1,0,1,0,1,0,1,0,1,0,1,0,1,0,1,0,1,0,1,0,1,0,1,0,1,0,1,0,1,0,1,0,1,0,1,0,1,0,1,0,1,0,1,0,1,0,1,0,1,0,1,0,1,0,1,0,1,0,1,0,1,0,1,0,1,0,1,0,1,0,1,0,1,0,1,0,1,0,1,0,1,0,1,0,1,0,1,0,1,0,1,0,1,0,1,0,1],"trees":[{"base_weights":[3.0565783E-1,-9.097885E-1,9.739029E-1,-9.479106E-1,8.15654E-1,2.4940048E-1,9.967911E-1,-9.6370643E-1,-1.5581395E-1,-7.432432E-1,9.4320714E-1,-7.312169E-1,8.440308E-1,8.028674E-1,9.988509E-1,-9.789545E-1,-5.982634E-1,-8.4123486E-1,6.07362E-1,-9.62963E-1,-1.4285715E-1,1.3793103E-1,9.6896553E-1,-8.6452043E-1,-2.319202E-1,1.5824915E-1,9.156327E-1,-3.6893204E-1,9.659864E-1,9.4262296E-1,9.9945784E-1,-9.816206E-1,-4.4444445E-1,-8.417378E-1,1.1717861E-1,-9.1121495E-1,3.207547E-1,-1.9553073E-1,8.30721E-1,4.509804E-1,9.8344177E-1,-8.9936215E-1,-2.4390244E-1,-6.6E-1,1.9211823E-1,-1.5183246E-1,7.037037E-1,6.4658636E-1,9.7247314E-1,-6.7701864E-1,7.0212764E-1,6.923077E-1,9.881919E-1,-1.5384615E-2,9.793313E-1,-9.8236483E-1,3.9130434E-1,-7.881356E-1,1.1111111E-2,-8.568604E-1,-5.882353E-2,-4.4150943E-1,3.5714287E-1,-9.5896035E-1,-6.2204725E-1,-5.590551E-1,6.666667E-1,3.243243E-1,8.9399296E-1,7.9310346E-1,9.8899084E-1,-9.56446E-1,-6.4528304E-1,-6.1904764E-1,1.4285715E-1,-9.52381E-2,-8E-1,5.4385966E-1,-2.5274727E-1,3.1707317E-1,-4.954955E-1,3.809524E-1,8.8235295E-1,-8.695652E-2,8.088235E-1,8.5714287E-1,9.8468167E-1,-8.4615386E-1,-2.173913E-1,3.1914893E-1,9.166667E-1,6.363636E-1,9.924099E-1,-9.851544E-1,-7.5101215E-1,-8.9361703E-1,-3.6E-1,-3.3333334E-1,6.3076925E-1,-9.4602275E-1,-7.435441E-1,-6.2616825E-1,3.207547E-1,-6.0465115E-1,5.112782E-1,-9.734513E-1,-7.4545455E-1,-8.888889E-1,-2.631579E-1,-8.0246913E-1,-1.25E-1,6.296296E-1,9.342916E-1,-6.666667E-1,-9.6570396E-1,-1.904762E-1,-7.2444445E-1,-9.3333334E-1,-6.111111E-1,2.3255814E-2,8.356164E-1,-6.0784316E-1,1.904762E-1,-4.761905E-2,6.666667E-1,-7.741935E-1,-1.3725491E-1,-4.6666667E-1,2.6530612E-1,5.5714285E-1,9.3333334E-1,4.2857143E-1,9.3939394E-1,-6.1904764E-1,-9.480519E-1,-9.90532E-1,-9.226006E-1,-8.7250996E-1,-3.586498E-1,-9.861111E-1,-5.652174E-1,-6.2857145E-1,1.0204082E-1,-9.659969E-1,-7.0689654E-1,-8.272727E-1,-4.367347E-1,-2.6153848E-1,-7.7483445E-1,-3.3333334E-1,-8.2608694E-1,2.5714287E-1,6.728395E-1,7.5438595E-1,9.537037E-1,-9.734345E-1,-7.8571427E-1,-8.30303E-1,-4.1935483E-1,9.090909E-2,7.5510204E-1,7.1428573E-1,9.8734176E-1,-9.914712E-1,-8.288288E-1,-9.396608E-1,-6E-1,-9.301165E-1,-6.363636E-1,1.780822E-1,-5.903614E-1,-9.727346E-1,-7.5510204E-1,-8.684211E-1,-3.809524E-1,-8.498212E-1,-3.488372E-1,1.904762E-1,-5.609756E-1,-8.703704E-1,-5.1111114E-1,1.1904762E-1,7.7272725E-1,4.4186047E-1,8.172589E-1,-5.714286E-1,-9.04E-1,9.148936E-1,5.849057E-1,-9.9181247E-1,-6.455696E-1,-9.052369E-1,-1.1111111E-1,-9.448572E-1,-5.064935E-1,-8.293839E-1,-1.9008264E-1,-7.04918E-1,-9.520295E-1,-2.7659574E-1,-7.798165E-1,-7.4603176E-1,-9.52381E-2,-9.396985E-1,-7.6523703E-1,-6.855346E-1,-1.25E-1,-9.6666664E-1,-7.2E-1,3.5353535E-1,-2.112676E-1,2.8735632E-1,7.2727275E-1,6.216216E-1,9.2E-1],"categories":[],"categories_nodes":[],"categories_segments":[],"categories_sizes":[],"default_left":[1,1,1,1,1,1,1,1,1,1,1,1,1,1,1,1,1,1,1,0,0,0,1,1,1,1,1,1,1,1,0,1,1,1,1,1,0,1,1,0,1,1,1,1,1,1,1,1,1,1,0,1,0,0,1,1,0,1,1,1,0,1,1,1,1,1,0,0,1,0,0,1,1,0,0,0,1,1,1,1,1,0,0,1,1,1,0,1,0,0,0,0,0,1,1,1,0,1,0,1,1,1,0,1,1,0,0,0,0,0,0,0,1,0,1,0,1,0,0,0,0,0,0,0,0,0,0,0,0,1,0,0,1,0,0,1,1,1,1,0,0,0,0,1,1,1,1,0,1,0,0,1,1,0,0,0,0,1,0,0,1,0,0,1,1,1,1,1,1,0,1,0,0,0,0,1,0,0,1,1,0,1,0,1,1,0,0,0,0,0,0,0,0,0,0,0,0,0,0,0,0,0,0,0,0,0,0,0,0,0,0,0,0,0,0],"id":0,"left_children":[1,3,5,7,9,11,13,15,17,19,21,23,25,27,29,31,33,35,37,-1,-1,-1,39,41,43,45,47,49,51,53,-1,55,57,59,61,63,-1,65,67,-1,69,71,73,75,77,79,81,83,85,87,-1,89,-1,-1,91,93,-1,95,97,99,-1,101,103,105,107,109,-1,-1,111,-1,-1,113,115,-1,-1,-1,117,119,121,123,125,-1,-1,127,129,131,-1,133,-1,-1,-1,-1,-1,135,137,139,-1,141,-1,143,145,147,-1,149,151,-1,-1,-1,-1,-1,-1,-1,153,-1,155,-1,157,-1,-1,-1,-1,-1,-1,-1,-1,-1,-1,-1,-1,159,-1,-1,161,-1,-1,163,165,167,169,-1,-1,-1,-1,171,173,175,177,-1,179,-1,-1,181,183,-1,-1,-1,-1,185,-1,-1,187,-1,-1,189,191,193,195,197,199,-1,201,-1,-1,-1,-1,203,-1,-1,205,207,-1,209,-1,211,213,-1,-1,-1,-1,-1,-1,-1,-1,-1,-1,-1,-1,-1,-1,-1,-1,-1,-1,-1,-1,-1,-1,-1,-1,-1,-1,-1,-1,-1,-1],"loss_changes":[1.0278682E5,2.9538203E3,1.3538359E3,5.494258E2,1.9377686E2,1.4595455E3,3.0804688E1,2.3938672E2,4.503741E2,9.624264E0,1.8493225E1,6.2696808E1,7.635803E1,1.603429E2,1.734375E0,5.8476562E1,3.0101495E2,3.716916E1,7.324077E1,0E0,0E0,0E0,6.080139E0,1.5900879E1,3.6522015E1,2.5223455E1,2.0941528E1,3.4463203E1,3.7825928E0,3.0047607E1,0E0,4.2414062E1,3.2418827E1,1.5210999E1,5.9079315E1,5.312622E0,0E0,2.842467E1,9.93103E0,0E0,1.0864258E-1,9.615295E0,6.037166E0,7.830475E0,1.6019938E1,1.5546507E1,2.7774677E0,2.9703308E1,7.928467E-1,6.0740585E0,0E0,4.605154E0,0E0,0E0,3.0578003E0,2.5792969E1,0E0,5.0072174E0,1.9419659E1,1.2072571E1,0E0,1.8851381E1,4.5969055E1,4.0518188E-1,5.8472633E0,6.6087894E0,0E0,0E0,2.4266815E0,0E0,0E0,8.960571E-1,4.632427E0,0E0,0E0,0E0,1.4444466E0,8.638279E0,7.2768803E0,5.259001E0,5.434911E0,0E0,0E0,6.276664E0,5.8726807E0,3.7922058E0,0E0,7.668991E-1,0E0,0E0,0E0,0E0,0E0,1.275E1,2.3236603E1,2.297882E0,0E0,7.5836735E0,0E0,2.6796875E0,1.4062897E1,5.597622E0,0E0,2.3080559E0,1.0748528E1,0E0,0E0,0E0,0E0,0E0,0E0,0E0,1.3093567E-1,0E0,6.0424805E-3,0E0,3.2851524E0,0E0,0E0,0E0,0E0,0E0,0E0,0E0,0E0,0E0,0E0,0E0,0E0,6.392023E0,0E0,0E0,3.6330414E-1,0E0,0E0,4.8554688E0,1.721289E1,4.5298767E0,1.4842629E1,0E0,0E0,0E0,0E0,1.8481445E-1,2.7227535E0,4.450287E0,9.652695E0,0E0,1.457367E0,0E0,0E0,7.383983E0,5.0428543E0,0E0,0E0,0E0,0E0,1.0573845E0,0E0,0E0,7.974758E-1,0E0,0E0,3.75E0,1.2073761E1,6.4226074E0,1.535704E1,8.117981E-1,3.758253E0,0E0,6.326256E0,0E0,0E0,0E0,0E0,2.4700012E0,0E0,0E0,5.480541E0,8.5926056E-2,0E0,6.5808992E0,0E0,2.635295E0,1.407959E0,0E0,0E0,0E0,0E0,0E0,0E0,0E0,0E0,0E0,0E0,0E0,0E0,0E0,0E0,0E0,0E0,0E0,0E0,0E0,0E0,0E0,0E0,0E0,0E0,0E0,0E0,0E0,0E0,0E0,0E0],"parents":[2147483647,0,0,1,1,2,2,3,3,4,4,5,5,6,6,7,7,8,8,9,9,10,10,11,11,12,12,13,13,14,14,15,15,16,16,17,17,18,18,22,22,23,23,24,24,25,25,26,26,27,27,28,28,29,29,31,31,32,32,33,33,34,34,35,35,37,37,38,38,40,40,41,41,42,42,43,43,44,44,45,45,46,46,47,47,48,48,49,49,51,51,54,54,55,55,57,57,58,58,59,59,61,61,62,62,63,63,64,64,65,65,68,68,71,71,72,72,76,76,77,77,78,78,79,79,80,80,83,83,84,84,85,85,87,87,93,93,94,94,95,95,97,97,99,99,100,100,101,101,103,103,104,104,112,112,114,114,116,116,129,129,132,132,135,135,136,136,137,137,138,138,143,143,144,144,145,145,146,146,148,148,151,151,152,152,157,157,160,160,163,163,164,164,165,165,166,166,167,167,168,168,170,170,175,175,178,178,179,179,181,181,183,183,184,184],"right_children":[2,4,6,8,10,12,14,16,18,20,22,24,26,28,30,32,34,36,38,-1,-1,-1,40,42,44,46,48,50,52,54,-1,56,58,60,62,64,-1,66,68,-1,70,72,74,76,78,80,82,84,86,88,-1,90,-1,-1,92,94,-1,96,98,100,-1,102,104,106,108,110,-1,-1,112,-1,-1,114,116,-1,-1,-1,118,120,122,124,126,-1,-1,128,130,132,-1,134,-1,-1,-1,-1,-1,136,138,140,-1,142,-1,144,146,148,-1,150,152,-1,-1,-1,-1,-1,-1,-1,154,-1,156,-1,158,-1,-1,-1,-1,-1,-1,-1,-1,-1,-1,-1,-1,160,-1,-1,162,-1,-1,164,166,168,170,-1,-1,-1,-1,172,174,176,178,-1,180,-1,-1,182,184,-1,-1,-1,-1,186,-1,-1,188,-1,-1,190,192,194,196,198,200,-1,202,-1,-1,-1,-1,204,-1,-1,206,208,-1,210,-1,212,214,-1,-1,-1,-1,-1,-1,-1,-1,-1,-1,-1,-1,-1,-1,-1,-1,-1,-1,-1,-1,-1,-1,-1,-1,-1,-1,-1,-1,-1,-1],"split_conditions":[9.014558E2,3.15E1,4.565012E0,4.021058E1,6.9991837E0,2.750393E1,5.356108E0,9.5E0,5.514089E2,9.25365E1,3.8937955E0,1.1858557E2,2.1829905E1,2.594444E1,5.9094934E0,2.6747226E2,2.2869814E1,8.5E0,3.635924E1,-1.4444445E-1,-2.1428574E-2,2.0689655E-2,4.9497992E2,1.2263137E3,1.9224735E1,3.7436424E1,3.5969E1,2.75E1,3.2432076E1,2.0952965E1,1.4991868E-1,4.6726764E2,6.706714E2,2.55E1,5.9313214E2,4.5E0,4.811321E-2,6.5E0,5.3280706E0,6.764706E-2,4.4708157E0,2.2226871E1,7.588293E0,3.7229705E0,3.933569E0,3.7839289E0,1.3825718E1,1.104801E1,1.0991062E1,7.820956E1,1.0531915E-1,1.1179221E3,1.482288E-1,-2.3076923E-3,2.7717731E1,1.4317914E2,5.8695655E-2,1.3419266E2,3.6437386E1,1.3008387E1,-8.82353E-3,4.6510303E2,1.1730471E1,6.029209E1,3.8709247E2,5.85E1,1.0000001E-1,4.8648648E-2,6.38121E2,1.1896552E-1,1.4834863E-1,6.55002E0,3.6078897E0,-9.285715E-2,2.1428574E-2,-1.4285715E-2,1.3947897E1,3.0803497E2,2.4263638E1,1.03726E3,1.2464596E1,5.714286E-2,1.3235295E-1,1.0523125E3,2.689959E2,1.0219302E3,1.4770226E-1,4.766841E0,-3.2608695E-2,4.7872342E-2,1.375E-1,9.545455E-2,1.4886148E-1,5.5E0,6.9729395E2,7.1197864E2,-5.4000005E-2,6.616504E2,9.461539E-2,5.5309814E2,7.374363E2,3.5E0,4.811321E-2,1.15E1,3.4845312E2,-1.460177E-1,-1.1181819E-1,-1.3333334E-1,-3.9473686E-2,-1.2037037E-1,-1.875E-2,9.4444446E-2,1.7230533E2,-1.0000001E-1,7.5E0,-2.857143E-2,1.5634567E2,-1.4E-1,-9.166667E-2,3.4883723E-3,1.2534247E-1,-9.117648E-2,2.857143E-2,-7.1428576E-3,1.0000001E-1,-1.1612903E-1,-2.0588238E-2,-7E-2,3.979592E-2,6.15E1,1.4E-1,6.428572E-2,4.4611908E1,-9.285715E-2,-1.422078E-1,7.37987E2,2.8745705E1,2.3931274E1,3.7845688E0,-1.4791667E-1,-8.478261E-2,-9.428572E-2,1.53061235E-2,8.5358826E2,1.4968037E1,4.079469E2,3.5444772E0,-3.923077E-2,7.2469885E2,-5.0000004E-2,-1.2391304E-1,2.3969061E2,2.7950287E1,1.131579E-1,1.4305556E-1,-1.4601518E-1,-1.1785714E-1,-2.7653297E1,-6.2903225E-2,1.3636365E-2,2.05E1,1.07142866E-1,1.4810127E-1,7.240385E0,2.7975697E1,2.65E1,6.166317E2,4.025752E0,3.7707505E0,2.671233E-2,3.320481E1,-1.4591019E-1,-1.1326531E-1,-1.3026316E-1,-5.714286E-2,7.5E0,-5.232558E-2,2.857143E-2,1.4009045E2,3.4135962E2,-7.6666676E-2,3.839281E0,1.1590909E-1,3.3719498E1,9.3956384E2,-8.5714296E-2,-1.356E-1,1.3723405E-1,8.7735854E-2,-1.4877188E-1,-9.683545E-2,-1.3578553E-1,-1.6666668E-2,-1.4172858E-1,-7.597403E-2,-1.2440759E-1,-2.8512398E-2,-1.0573771E-1,-1.4280443E-1,-4.1489363E-2,-1.1697248E-1,-1.1190477E-1,-1.4285715E-2,-1.4095478E-1,-1.1478556E-1,-1.02830194E-1,-1.875E-2,-1.45E-1,-1.0800001E-1,5.3030305E-2,-3.1690143E-2,4.310345E-2,1.0909092E-1,9.324324E-2,1.3800001E-1],"split_indices":[2,9,8,6,10,4,8,35,2,32,8,33,6,4,8,42,6,35,4,0,0,0,2,2,6,4,4,9,4,4,0,10,2,9,2,35,0,35,39,0,8,4,15,20,20,20,39,39,39,33,0,2,0,0,4,34,0,32,4,39,0,32,39,45,2,0,0,0,2,0,0,7,20,0,0,0,39,32,4,2,39,0,0,2,32,2,0,8,0,0,0,0,0,35,2,40,0,17,0,32,2,12,0,31,32,0,0,0,0,0,0,0,40,0,35,0,42,0,0,0,0,0,0,0,0,0,0,0,0,0,0,0,4,0,0,40,6,6,20,0,0,0,0,2,6,24,20,0,17,0,0,42,6,0,0,0,0,22,0,0,14,0,0,8,6,9,2,15,20,0,5,0,0,0,0,29,0,0,42,26,0,20,0,4,17,0,0,0,0,0,0,0,0,0,0,0,0,0,0,0,0,0,0,0,0,0,0,0,0,0,0,0,0,0,0],"split_type":[0,0,0,0,0,0,0,0,0,0,0,0,0,0,0,0,0,0,0,0,0,0,0,0,0,0,0,0,0,0,0,0,0,0,0,0,0,0,0,0,0,0,0,0,0,0,0,0,0,0,0,0,0,0,0,0,0,0,0,0,0,0,0,0,0,0,0,0,0,0,0,0,0,0,0,0,0,0,0,0,0,0,0,0,0,0,0,0,0,0,0,0,0,0,0,0,0,0,0,0,0,0,0,0,0,0,0,0,0,0,0,0,0,0,0,0,0,0,0,0,0,0,0,0,0,0,0,0,0,0,0,0,0,0,0,0,0,0,0,0,0,0,0,0,0,0,0,0,0,0,0,0,0,0,0,0,0,0,0,0,0,0,0,0,0,0,0,0,0,0,0,0,0,0,0,0,0,0,0,0,0,0,0,0,0,0,0,0,0,0,0,0,0,0,0,0,0,0,0,0,0,0,0,0,0,0,0,0,0,0,0,0,0,0,0],"sum_hessian":[1.26549E5,4.48935E4,8.16555E4,4.39235E4,9.7E2,2.501E3,7.91545E4,4.30645E4,8.59E2,7.3E1,8.97E2,9.44E2,1.557E3,8.36E2,7.83185E4,4.1338E4,1.7265E3,4.525E2,4.065E2,5.3E1,2E1,2.8E1,8.69E2,7.445E2,1.995E2,1.475E2,1.4095E3,1.02E2,7.34E2,8.53E2,7.74655E4,4.1132E4,2.06E2,1.288E3,4.385E2,4.27E2,2.55E1,8.85E1,3.18E2,2.45E1,8.445E2,7.045E2,4E1,9.9E1,1.005E2,9.45E1,5.3E1,2.48E2,1.1615E3,7.95E1,2.25E1,5.75E1,6.765E2,3.15E1,8.215E2,4.111E4,2.2E1,1.17E2,8.9E1,1.2635E3,2.45E1,1.315E2,3.07E2,3.645E2,6.25E1,6.25E1,2.6E1,3.6E1,2.82E2,2.8E1,8.165E2,5.73E2,1.315E2,2E1,2E1,2E1,7.9E1,5.6E1,4.45E1,4E1,5.45E1,2E1,3.3E1,4.5E1,2.03E2,1.18E2,1.0435E3,5.75E1,2.2E1,2.25E1,3.5E1,3.2E1,7.895E2,4.0617E4,4.93E2,9.3E1,2.4E1,5.75E1,3.15E1,7.03E2,5.605E2,1.06E2,2.55E1,4.2E1,2.65E2,3.38E2,2.65E1,3.5E1,2.75E1,3.95E1,2.3E1,3.95E1,2.425E2,2E1,5.53E2,2E1,1.115E2,4.4E1,3.5E1,2.05E1,3.55E1,2.45E1,2E1,2E1,2E1,3E1,2.45E1,2.15E1,2.35E1,6.9E1,1.34E2,2E1,9.8E1,2E1,3.75E1,3.7388E4,3.229E3,3.755E2,1.175E2,7.1E1,2.2E1,3.4E1,2.35E1,6.46E2,5.7E1,4.39E2,1.215E2,3.15E1,7.45E1,2E1,2.2E1,1.04E2,1.61E2,2.75E1,2.15E2,5.26E2,2.7E1,8.15E1,3E1,2.1E1,4.8E1,2E1,7.8E1,3.7167E4,2.21E2,3.065E3,1.64E2,2.995E2,7.6E1,3.55E1,8.2E1,6.225E2,2.35E1,3.7E1,2E1,4.185E2,2.05E1,2E1,1.015E2,5.3E1,2.15E1,8.3E1,2.1E1,6.35E1,9.75E1,2E1,6.15E1,2.25E1,2.55E1,3.71285E4,3.85E1,1.995E2,2.15E1,3.0275E3,3.75E1,1.045E2,5.95E1,2.95E1,2.7E2,2.25E1,5.35E1,6.2E1,2E1,1.98E2,2.205E2,7.85E1,2.3E1,2.9E1,2.4E1,4.85E1,3.45E1,4.25E1,2.1E1,3.6E1,6.15E1],"tree_param":{"num_deleted":"0","num_feature":"47","num_nodes":"215","size_leaf_vector":"0"}},{"base_weights":[-3.050331E-1,8.543962E-1,-9.8839176E-1,9.3342423E-1,-3.3618623E-1,-2.7343246E-1,-9.9539495E-1,9.5731074E-1,4.385584E-2,5.048802E-1,-8.6406684E-1,6.8839425E-1,-9.3043476E-1,-2.868217E-1,-9.9654377E-1,9.668085E-1,7.0588235E-3,6.443692E-1,-5.871886E-1,8.037225E-1,-5.942029E-1,3.7190083E-1,-9.0665513E-1,8.3419687E-1,-9.6153843E-1,-3.043478E-1,-9.6118724E-1,3.740458E-1,-9.5348835E-1,-8.345324E-1,-9.988529E-1,9.6965796E-1,-2.0192307E-1,6.338983E-1,-3.249551E-1,7.522124E-1,-2.4096385E-2,4.5614034E-1,-7.035573E-1,8.454387E-1,-5.555556E-1,2.4271844E-1,-8.167539E-1,7.058824E-1,-5.4545455E-2,-1.9815668E-1,-9.533169E-1,8.886827E-1,9.52381E-2,-6.818182E-1,-9.898734E-1,8.202247E-1,-5.4545456E-1,2.4390244E-1,-9.6767676E-1,-8.6092716E-1,-9.9910897E-1,9.8272234E-1,7.502623E-1,9.076923E-1,-6.9655174E-1,8.57868E-1,1.8E-1,3.4210527E-1,-5.724816E-1,8.51497E-1,2.9347825E-1,3.8271606E-1,-4.0229884E-1,8.909091E-1,4.918033E-2,6.329114E-2,-7.668449E-1,8.7231505E-1,-1.4893617E-1,6.4E-1,-1.2727273E-1,-1.5555556E-1,-8.99705E-1,3.902439E-1,-5.4744524E-1,-5.584416E-1,-9.722938E-1,9.2975205E-1,5.0877196E-1,-3.3333334E-1,-9.583333E-1,9.591837E-1,6.1904764E-1,7.6608187E-1,-9.220779E-1,-2E-1,-9.8451215E-1,-2.7272728E-1,-9.5384616E-1,-9.236641E-1,-9.9935216E-1,9.845972E-1,4.388489E-1,8.695094E-1,2.173913E-1,-2.0930232E-1,-8.8461536E-1,9.358974E-1,5.3488374E-1,7.209302E-1,-2.2033899E-1,-9.375E-2,6.4444447E-1,-1.1764706E-2,-7.160494E-1,9.3668526E-1,6.933333E-1,4.7368422E-1,-1.6981132E-1,-2.2222223E-2,-7.7272725E-1,-2.7272728E-1,-8.382353E-1,9.3113345E-1,5.7746476E-1,-9.6240604E-1,-6.533333E-1,6.666667E-1,9.52381E-2,-1.4814815E-1,-7.882353E-1,3.7037037E-2,-8.627451E-1,-5E-1,-9.7907126E-1,9.6464646E-1,7.5555557E-1,9.3846154E-1,2.0930232E-1,-6.603774E-1,-9.925769E-1,-4.9295774E-1,-9.868132E-1,9.850168E-1,1.4285715E-1,7.900553E-1,-2.1212122E-1,8.8009346E-1,-1.4285715E-1,7.8571427E-1,5.2941177E-2,-9.6875E-1,-7.1428573E-1,8.7234044E-1,3.7777779E-1,5.1111114E-1,-5.714286E-1,-4.7692308E-1,-8.6734694E-1,9.591002E-1,6.8E-1,7.903226E-1,2.2222222E-1,6.7741936E-1,-0E0,1.3725491E-1,-5.555556E-1,-6.914601E-1,-9.5164835E-1,9.6006143E-1,5.106383E-1,8.586956E-1,5.882353E-2,-6.27907E-1,-9.0909094E-1,-6.666667E-1,-9.677419E-1,-7.5609756E-1,-9.845534E-1,9.148936E-1,5.555556E-1,9.8604894E-1,6.868327E-1,9.0625E-1,4.909091E-1,2.7272728E-1,-7.826087E-1,9.5816994E-1,7.641026E-1,9.104478E-1,5E-1,3.1782946E-1,-2.9491526E-1,-1.2280702E-1,-7.3333335E-1,-6.1538464E-1,-9.4520545E-1,9.770642E-1,7.818182E-1,8.638743E-1,5.254237E-1,9.047619E-1,4.716981E-1,-5.0617284E-1,-8.325123E-1,-8.1632656E-1,-9.832869E-1,9.7108436E-1,6.9491524E-1,8.7234044E-1,1.4285715E-1,9.53125E-1,6.2068963E-1,6.8E-1,-5.185185E-1,-9.047619E-1,-5.714286E-1,-8.857143E-1,-9.9133575E-1,9.888496E-1,8.8475835E-1,9.4285715E-1,5.280899E-1,9.643335E-1,6.666667E-1,7.891963E-1,-1.3636364E-1,6.238532E-1,-7.602339E-2,-1.1013216E-1,-8.857143E-1,6.7346936E-1,9.166667E-1,-7.3626375E-1,-2.0547946E-1,-6.54321E-1,-9.354839E-1,-6.4705884E-1,-9.591837E-1,9.9016714E-1,8.7826085E-1,-7.669903E-1,-9.8165137E-1],"categories":[],"categories_nodes":[],"categories_segments":[],"categories_sizes":[],"default_left":[1,1,1,1,1,1,1,1,1,1,1,1,1,1,1,1,1,1,1,1,1,1,1,1,0,0,1,1,0,1,1,1,1,1,1,1,1,1,1,1,0,1,1,0,0,1,1,1,0,1,0,1,0,1,1,1,1,1,1,0,1,1,1,1,1,1,1,0,1,0,0,0,1,1,0,0,0,0,1,1,1,1,1,1,0,0,0,0,0,1,0,0,1,0,0,1,0,1,1,1,1,0,1,0,0,0,0,0,1,1,1,1,1,1,0,0,0,1,1,1,1,0,0,0,0,0,1,0,1,0,1,0,1,0,0,0,0,0,0,1,0,1,1,1,0,1,1,0,0,0,0,0,0,1,1,1,0,1,0,1,0,0,0,1,1,1,1,1,1,0,0,0,0,1,1,0,0,1,1,0,0,0,0,1,1,0,0,1,1,0,0,0,0,0,0,1,0,0,0,1,1,1,0,1,0,0,0,0,0,0,0,0,0,1,0,0,0,0,0,0,0,0,0,0,0,0,0,0,0,0,0,0,0,0,0,0,0,0,0],"id":1,"left_children":[1,3,5,7,9,11,13,15,17,19,21,23,25,27,29,31,33,35,37,39,41,43,45,47,-1,-1,49,51,-1,53,55,57,59,61,63,65,67,69,71,73,-1,75,77,-1,-1,79,81,83,-1,85,-1,87,-1,89,91,93,95,97,99,-1,101,103,105,107,109,111,113,-1,115,-1,-1,-1,117,119,-1,-1,-1,-1,121,123,125,127,129,131,-1,-1,-1,-1,-1,133,-1,-1,135,-1,-1,137,-1,139,141,143,145,-1,147,-1,-1,-1,-1,-1,149,151,153,155,157,159,-1,-1,-1,161,163,165,167,-1,-1,-1,-1,-1,169,-1,171,-1,173,-1,175,-1,-1,-1,-1,-1,-1,177,-1,179,181,183,-1,185,187,-1,-1,-1,-1,-1,-1,189,191,193,-1,195,-1,197,-1,-1,-1,199,201,203,205,207,209,-1,-1,-1,-1,211,213,-1,-1,215,217,-1,-1,-1,-1,219,221,-1,-1,223,225,-1,-1,-1,-1,-1,-1,227,-1,-1,-1,229,231,233,-1,235,-1,-1,-1,-1,-1,-1,-1,-1,-1,237,-1,-1,-1,-1,-1,-1,-1,-1,-1,-1,-1,-1,-1,-1,-1,-1,-1,-1,-1,-1,-1,-1,-1,-1,-1],"loss_changes":[1.0023746E5,4.4145195E3,3.9827344E2,9.3479297E2,1.2973097E3,4.8943246E2,6.3875E1,3.8667578E2,4.3674E2,3.7064355E2,9.48219E1,7.6459656E1,8.564178E0,5.7191254E1,2.8609375E1,1.4146484E2,8.865675E1,4.258696E1,6.85538E1,5.073767E1,4.5179474E1,8.655227E0,5.71864E1,1.1571457E1,0E0,0E0,2.8352356E0,2.7319534E1,0E0,1.599054E2,1.8828125E0,1.2055859E2,5.77124E1,1.4840355E1,4.6180397E1,2.2909851E1,1.2924135E1,1.0041394E1,2.4605743E1,2.3126953E1,0E0,7.651474E0,1.0335854E1,0E0,0E0,2.2512732E1,1.1656494E1,3.7318878E0,0E0,3.920454E0,0E0,6.502342E-1,0E0,7.5595055E1,1.2597961E1,7.992752E0,5E-1,4.0289062E1,1.51203E2,0E0,6.4583054E0,1.9818268E0,1.0986622E1,1.0075401E1,1.6373512E1,4.97583E0,7.7612906E0,0E0,6.1072454E0,0E0,0E0,0E0,1.6262573E1,1.3995422E1,0E0,0E0,0E0,0E0,1.989624E0,3.2799072E0,6.4692764E0,1.3984835E1,4.4782715E0,7.42157E-1,0E0,0E0,0E0,0E0,0E0,8.009651E0,0E0,0E0,1.8762207E0,0E0,0E0,6.6396027E0,0E0,1.3917969E1,3.1946436E1,2.09823E1,4.0800766E1,0E0,5.3230286E-2,0E0,0E0,0E0,0E0,0E0,2.405201E0,1.2729038E1,5.4473724E0,8.9263916E-1,6.6782837E0,6.417656E0,0E0,0E0,0E0,7.091503E0,6.1336365E0,7.988098E0,2.0661316E1,0E0,0E0,0E0,0E0,0E0,2.5267982E-1,0E0,4.0480804E-1,0E0,1.1245117E0,0E0,9.257698E-1,0E0,0E0,0E0,0E0,0E0,0E0,1.1566406E1,0E0,2.7008247E0,1.3905139E1,1.67146E1,0E0,3.0373116E0,3.1422382E1,0E0,0E0,0E0,0E0,0E0,0E0,5.8118753E0,1.3408432E0,1.4785767E-2,0E0,1.9620819E0,0E0,1.7479935E0,0E0,0E0,0E0,4.322136E0,1.7132568E-1,1.2279053E0,6.127659E0,1.4760818E0,1.864279E1,0E0,0E0,0E0,0E0,6.085949E-1,1.2023926E-1,0E0,0E0,1.0371094E1,5.2122955E0,0E0,0E0,0E0,0E0,1.4188232E0,1.7732544E1,0E0,0E0,2.3369661E1,1.6004982E1,0E0,0E0,0E0,0E0,0E0,0E0,3.4261322E-1,0E0,0E0,0E0,5.4528446E0,1.2502823E0,5.6422806E-1,0E0,2.3303223E-1,0E0,0E0,0E0,0E0,0E0,0E0,0E0,0E0,0E0,4.4303894E-1,0E0,0E0,0E0,0E0,0E0,0E0,0E0,0E0,0E0,0E0,0E0,0E0,0E0,0E0,0E0,0E0,0E0,0E0,0E0,0E0,0E0,0E0,0E0,0E0,0E0],"parents":[2147483647,0,0,1,1,2,2,3,3,4,4,5,5,6,6,7,7,8,8,9,9,10,10,11,11,12,12,13,13,14,14,15,15,16,16,17,17,18,18,19,19,20,20,21,21,22,22,23,23,26,26,27,27,29,29,30,30,31,31,32,32,33,33,34,34,35,35,36,36,37,37,38,38,39,39,41,41,42,42,45,45,46,46,47,47,49,49,51,51,53,53,54,54,55,55,56,56,57,57,58,58,60,60,61,61,62,62,63,63,64,64,65,65,66,66,68,68,72,72,73,73,78,78,79,79,80,80,81,81,82,82,83,83,89,89,92,92,95,95,97,97,98,98,99,99,100,100,102,102,108,108,109,109,110,110,111,111,112,112,113,113,117,117,118,118,119,119,120,120,126,126,128,128,130,130,132,132,139,139,141,141,142,142,143,143,145,145,146,146,153,153,154,154,155,155,157,157,159,159,163,163,164,164,165,165,166,166,167,167,168,168,173,173,174,174,177,177,178,178,183,183,184,184,187,187,188,188,195,195,199,199,200,200,201,201,203,203,213,213],"right_children":[2,4,6,8,10,12,14,16,18,20,22,24,26,28,30,32,34,36,38,40,42,44,46,48,-1,-1,50,52,-1,54,56,58,60,62,64,66,68,70,72,74,-1,76,78,-1,-1,80,82,84,-1,86,-1,88,-1,90,92,94,96,98,100,-1,102,104,106,108,110,112,114,-1,116,-1,-1,-1,118,120,-1,-1,-1,-1,122,124,126,128,130,132,-1,-1,-1,-1,-1,134,-1,-1,136,-1,-1,138,-1,140,142,144,146,-1,148,-1,-1,-1,-1,-1,150,152,154,156,158,160,-1,-1,-1,162,164,166,168,-1,-1,-1,-1,-1,170,-1,172,-1,174,-1,176,-1,-1,-1,-1,-1,-1,178,-1,180,182,184,-1,186,188,-1,-1,-1,-1,-1,-1,190,192,194,-1,196,-1,198,-1,-1,-1,200,202,204,206,208,210,-1,-1,-1,-1,212,214,-1,-1,216,218,-1,-1,-1,-1,220,222,-1,-1,224,226,-1,-1,-1,-1,-1,-1,228,-1,-1,-1,230,232,234,-1,236,-1,-1,-1,-1,-1,-1,-1,-1,-1,238,-1,-1,-1,-1,-1,-1,-1,-1,-1,-1,-1,-1,-1,-1,-1,-1,-1,-1,-1,-1,-1,-1,-1,-1,-1],"split_conditions":[1.5414249E2,3.504138E1,5.486905E0,3.9715036E2,5.5E0,2.827848E1,3.85E1,2.591969E2,2.1013351E1,4.9859192E2,9.3869275E2,1.7384336E3,5.55E1,2.85E1,6.1325502E0,3.25E1,2.95362E1,1.4481924E2,2.3100334E1,3.45E1,3.5688793E1,5.6324646E1,3.220257E1,2.2397604E2,-1.4423077E-1,-4.5652173E-2,3.4408543E1,4.239127E1,-1.4302325E-1,2.4966461E1,2.0467831E2,7.5E0,3.8762603E0,5.5E0,5.05E1,1.843198E1,4.2073902E1,1.7494286E1,1.0488384E1,2.95E1,-8.333334E-2,6.05E1,7.2466216E0,1.0588236E-1,-8.181819E-3,1.18006165E2,1.3359614E3,2.3826305E1,1.4285715E-2,3.1274683E3,-1.4848101E-1,6.779059E0,-8.1818186E-2,2.95E1,5.45E1,2.9666258E1,1.5244584E1,8.736442E2,2.3167934E1,1.3615385E-1,1.9268635E1,6.850836E2,1.19439E1,4.5E0,1.932191E1,1.459062E1,2.6363794E3,5.7407413E-2,1.0287476E3,1.3363637E-1,7.3770494E-3,9.493671E-3,1.7879852E3,3.5E0,-2.2340426E-2,9.6E-2,-1.909091E-2,-2.3333335E-2,7.5E0,5.65E1,2.387145E3,4.443636E1,8.682484E0,1.9304811E1,7.63158E-2,-5.0000004E-2,-1.4375E-1,1.4387757E-1,9.285715E-2,7.05E1,-1.3831168E-1,-3.0000001E-2,2.8716614E1,-4.0909093E-2,-1.4307693E-1,6.7209096E0,-1.4990284E-1,2.566128E2,2.2962109E1,1.1383363E2,1.1728857E1,-3.139535E-2,7.5375967E0,1.4038461E-1,8.023256E-2,1.0813954E-1,-3.305085E-2,-1.4062501E-2,4.3866386E1,3.8989067E1,3.773604E1,1.616907E1,6.448916E2,3.0493706E1,-2.54717E-2,-3.3333336E-3,-1.1590909E-1,7.753836E2,3.532314E1,9.039597E0,4.0493805E1,-1.4436091E-1,-9.8E-2,1.0000001E-1,1.4285715E-2,-2.2222223E-2,1.1762869E3,5.5555557E-3,1.3818488E2,-7.5E-2,4.25E1,1.4469698E-1,6.55E1,1.4076924E-1,3.139535E-2,-9.905661E-2,-1.4888655E-1,-7.394367E-2,-1.4802198E-1,1.7918063E2,2.1428574E-2,2.9801367E1,3.319671E1,1.4829019E1,-2.1428574E-2,2.4135674E1,1.5E0,-1.453125E-1,-1.07142866E-1,1.3085108E-1,5.666667E-2,7.6666676E-2,-8.5714296E-2,1.691673E2,2.5655594E1,4.3365044E1,1.02000006E-1,3.4396493E0,3.3333335E-2,1.4132702E1,-0E0,2.0588238E-2,-8.333334E-2,2.568831E3,2.2196934E3,6.7808636E2,3.1547348E1,5.05E1,2.95E1,-9.418605E-2,-1.3636364E-1,-1.0000001E-1,-1.4516129E-1,1.9561859E2,3.6980373E1,1.3723405E-1,8.333334E-2,5.500176E2,9.15926E0,1.3593751E-1,7.363637E-2,4.0909093E-2,-1.1739131E-1,8.15E1,2.55E1,1.3656718E-1,7.5E-2,6.25E1,6.165162E2,-1.8421054E-2,-1.1000001E-1,-9.23077E-2,-1.4178082E-1,1.4655964E-1,1.17272735E-1,-9.5851145E0,7.881356E-2,1.3571429E-1,7.075472E-2,9.9864006E-1,1.75E1,1.85E1,-1.4749305E-1,4.0538498E1,1.0423729E-1,1.3085108E-1,2.1428574E-2,1.4296876E-1,9.3103446E-2,1.02000006E-1,-7.777778E-2,-1.3571429E-1,-8.5714296E-2,2.5746655E2,-1.4870037E-1,1.4832744E-1,1.3271376E-1,1.4142857E-1,7.9213485E-2,1.4465003E-1,1.0000001E-1,1.1837945E-1,-2.0454546E-2,9.357798E-2,-1.1403509E-2,-1.6519824E-2,-1.3285714E-1,1.0102041E-1,1.375E-1,-1.1043957E-1,-3.082192E-2,-9.814816E-2,-1.4032258E-1,-9.705883E-2,-1.4387757E-1,1.4852507E-1,1.3173914E-1,-1.1504855E-1,-1.4724772E-1],"split_indices":[10,6,8,32,35,4,0,42,6,40,1,10,0,9,8,9,4,42,4,14,4,4,4,32,0,0,4,4,0,4,10,35,10,35,0,6,5,39,39,9,0,0,7,0,0,33,1,4,0,1,0,8,0,9,0,4,4,40,6,0,4,40,39,12,6,6,1,0,17,0,0,0,1,35,0,0,0,0,12,0,1,6,39,39,0,0,0,0,0,0,0,0,4,0,0,8,0,45,6,45,39,0,19,0,0,0,0,0,5,4,4,39,32,4,0,0,0,17,4,7,4,0,0,0,0,0,26,0,33,0,0,0,0,0,0,0,0,0,0,34,0,4,4,39,0,45,13,0,0,0,0,0,0,32,6,5,0,8,0,39,0,0,0,1,1,17,4,0,0,0,0,0,0,23,4,0,0,40,39,0,0,0,0,0,9,0,0,0,40,0,0,0,0,0,0,18,0,0,0,16,9,9,0,5,0,0,0,0,0,0,0,0,0,33,0,0,0,0,0,0,0,0,0,0,0,0,0,0,0,0,0,0,0,0,0,0,0,0,0],"split_type":[0,0,0,0,0,0,0,0,0,0,0,0,0,0,0,0,0,0,0,0,0,0,0,0,0,0,0,0,0,0,0,0,0,0,0,0,0,0,0,0,0,0,0,0,0,0,0,0,0,0,0,0,0,0,0,0,0,0,0,0,0,0,0,0,0,0,0,0,0,0,0,0,0,0,0,0,0,0,0,0,0,0,0,0,0,0,0,0,0,0,0,0,0,0,0,0,0,0,0,0,0,0,0,0,0,0,0,0,0,0,0,0,0,0,0,0,0,0,0,0,0,0,0,0,0,0,0,0,0,0,0,0,0,0,0,0,0,0,0,0,0,0,0,0,0,0,0,0,0,0,0,0,0,0,0,0,0,0,0,0,0,0,0,0,0,0,0,0,0,0,0,0,0,0,0,0,0,0,0,0,0,0,0,0,0,0,0,0,0,0,0,0,0,0,0,0,0,0,0,0,0,0,0,0,0,0,0,0,0,0,0,0,0,0,0,0,0,0,0,0,0,0,0,0,0,0,0,0,0,0,0,0,0,0,0,0,0,0,0],"sum_hessian":[1.265115E5,4.6914E4,7.95975E4,4.3994E4,2.92E3,7.725E2,7.8825E4,4.28435E4,1.1505E3,1.126E3,1.794E3,3.135E2,4.59E2,1.28E2,7.8697E4,4.24195E4,4.24E2,5.895E2,5.61E2,8.855E2,2.405E2,5.95E1,1.7345E3,2.885E2,2.5E1,2.2E1,4.37E2,6.45E1,6.35E1,1.111E3,7.7586E4,4.23165E4,1.03E2,1.465E2,2.775E2,5.075E2,8.2E1,5.6E1,5.05E2,8.595E2,2.6E1,5.05E1,1.9E2,3.3E1,2.65E1,1.075E2,1.627E3,2.685E2,2E1,4.3E1,3.94E2,4.35E1,2.1E1,1.22E2,9.89E2,1.5E2,7.7436E4,3.9935E4,2.3815E3,3.15E1,7.15E1,9.75E1,4.9E1,7.5E1,2.025E2,4.165E2,9.1E1,3.95E1,4.25E1,2.65E1,2.95E1,3.85E1,4.665E2,8.37E2,2.25E1,2.4E1,2.65E1,2.15E1,1.685E2,4E1,6.75E1,7.6E1,1.551E3,2.41E2,2.75E1,2E1,2.3E1,2.35E1,2E1,8.45E1,3.75E1,2.15E1,9.675E2,2.1E1,1.29E2,2.61E2,7.7175E4,3.9797E4,1.38E2,1.9455E3,4.36E2,2.05E1,5.1E1,7.7E1,2.05E1,2.05E1,2.85E1,3.1E1,4.4E1,4.15E1,1.61E2,2.675E2,1.49E2,6.55E1,2.55E1,2.15E1,2.1E1,5.95E1,4.07E2,6.96E2,1.41E2,1.32E2,3.65E1,2E1,2E1,2.6E1,4.15E1,2.6E1,5E1,2.3E1,1.528E3,1.97E2,4.4E1,6.4E1,2.05E1,2.55E1,9.42E2,3.45E1,2.265E2,3.9777E4,2E1,8.95E1,4.85E1,1.9255E3,2E1,9.7E1,3.39E2,3.1E1,2E1,2.25E1,2.15E1,2.15E1,2E1,6.4E1,9.7E1,2.435E2,2.4E1,1.23E2,2.6E1,4.55E1,2E1,2.45E1,3.5E1,1.805E2,2.265E2,6.5E2,4.6E1,9.1E1,5E1,2.05E1,2.1E1,2E1,3E1,4E1,1.488E3,2.25E1,2.15E1,3.96375E4,1.395E2,6.3E1,2.65E1,2.65E1,2.2E1,1.1465E3,7.79E2,6.6E1,3.1E1,1.925E2,1.465E2,2.75E1,3.65E1,2.5E1,7.2E1,2.17E2,2.65E1,9.45E1,2.85E1,2E1,2.55E1,8E1,1.005E2,4.8E1,1.785E2,6.215E2,2.85E1,2.25E1,2.35E1,6.3E1,2.8E1,2.4E1,2.6E1,2E1,2E1,1.04E2,1.384E3,3.85625E4,1.075E3,5.15E1,8.8E1,1.1205E3,2.6E1,7.58E2,2.1E1,1.08E2,8.45E1,1.125E2,3.4E1,2.35E1,7.1E1,4.45E1,3.55E1,3.95E1,6.1E1,2.45E1,2.35E1,5.075E2,1.14E2,5.05E1,5.35E1],"tree_param":{"num_deleted":"0","num_feature":"47","num_nodes":"239","size_leaf_vector":"0"}},{"base_weights":[2.6544544E-1,-7.9024726E-1,8.492386E-1,-8.245735E-1,7.238413E-1,2.4559142E-1,8.6786973E-1,-8.3867794E-1,-1.1684258E-1,-6.612042E-1,8.304654E-1,-6.205758E-1,7.40621E-1,7.0017886E-1,8.6949545E-1,-8.524624E-1,-5.1454365E-1,-7.3721296E-1,5.404737E-1,-8.6783415E-1,-2.5589466E-1,1.1634298E-1,8.529782E-1,-7.7414995E-1,-2.4667151E-1,1.2009952E-1,7.986693E-1,-3.8904434E-1,8.421743E-1,8.2420874E-1,8.7001735E-1,-8.558197E-1,-5.6517595E-1,-7.2402954E-1,1.0251099E-1,-7.9911363E-1,3.3590984E-1,-5.0443575E-2,7.5424236E-1,4.9162745E-1,8.609764E-1,-2.9511616E-1,-8.0600685E-1,4.205845E-1,-4.398487E-1,-3.5004246E-1,4.2484784E-1,4.2260283E-1,8.31479E-1,-6.11549E-1,3.272694E-1,6.5954244E-1,8.70034E-1,1.9707565E-1,8.6337894E-1,-8.565621E-1,-7.5508095E-2,-7.1075195E-1,-9.4796285E-2,-8.212132E-1,-5.964196E-1,-6.5419376E-1,2.4417764E-1,-8.4028035E-1,-5.541291E-1,-5.0179744E-1,5.422161E-1,4.2295438E-1,7.959666E-1,-8.236837E-1,-4.9091285E-1,-7.726522E-2,7.0520395E-1,-7.1544594E-1,-2.2652176E-1,-6.6844517E-1,8.5507244E-2,-2.4955876E-2,5.79056E-1,-2.5609538E-1,6.2068087E-1,6.515563E-1,8.523548E-1,-7.827446E-1,-2.3770776E-1,2.743496E-1,7.6599795E-1,-4.944863E-1,8.8508993E-1,6.898948E-1,8.6910236E-1,-8.5879624E-1,-6.608858E-1,-7.7174723E-1,-2.1916409E-1,-7.517452E-1,1.4943448E-1,-8.323704E-1,-4.1161096E-1,-6.915879E-1,-3.0382308E-1,-4.4162235E-1,-8.024417E-1,-4.0039128E-1,4.0418738E-1,-8.7452203E-1,-7.587179E-1,-7.9262257E-1,-2.444493E-1,-7.4580395E-1,-4.148253E-2,2.3837665E-1,7.86446E-1,6.931356E-1,8.503744E-1,-8.3456355E-1,-5.223067E-1,-8.058172E-1,-4.4477153E-1,-5.200649E-1,2.4021585E-1,2.3175618E-1,7.739996E-1,7.791177E-1,2.0910744E-1,2.2932297E-1,7.906301E-1,7.876094E-1,8.6419344E-1,6.596522E-1,8.5550886E-1,-8.634536E-1,-8.0396426E-1,1.06208045E-2,-7.178652E-1,-8.0633926E-1,-2.984914E-1,-1.215703E-1,6.6112876E-1,-8.420375E-1,-4.8675847E-1,-7.5735205E-1,-5.021119E-1,3.426626E-1,-4.2101243E-1,-6.075491E-1,-4.5591734E-2,5.7404137E-1,2.0065004E-1,-8.2733583E-1,-4.2867696E-1,3.0772293E-1,7.9022384E-1,-8.42192E-1,-6.133622E-1,-8.764334E-1,-6.251503E-1,-6.755752E-1,-1.5926908E-1,8.560396E-3,4.6671447E-1,5.3784615E-1,8.809988E-1,4.241866E-1,8.7610847E-1,5.114894E-1,8.2260793E-1,-8.638745E-1,-6.2417406E-1,-8.105766E-1,5.2444525E-2,-7.499125E-1,-8.248407E-2,-8.345465E-1,-5.976569E-1,-4.1246223E-1,2.3594227E-1,-8.486739E-1,-5.9390014E-1,-8.034626E-1,-6.1381125E-1,-7.1428305E-1,-3.1650862E-1,-5.2054185E-1,5.4224025E-2,-7.716096E-1,-4.0322992E-1,3.2353148E-1,7.032709E-1,-1.6836215E-2,6.2196714E-1,6.45829E-1,8.6850584E-1,-8.4991705E-1,-6.411499E-1,-7.899796E-1,-5.056491E-1,6.635501E-1,8.512856E-1,-8.6648446E-1,-8.3462024E-1,-8.0482954E-1,-1.9537526E-1,-8.2813233E-1,-6.5695256E-1,-7.9978245E-1,-5.6326014E-1,-8.5781157E-1,-6.603885E-1,-6.989213E-1,-8.410698E-1,-7.3418516E-1,-4.2557472E-1,-8.039644E-1,-5.498611E-1,-1.7230157E-2,-5.6229633E-1,-1.3138193E-1,-6.206459E-1,4.219325E-2,5.584719E-1,4.1603306E-1,7.7318877E-1,-1.7749077E-1,4.8555318E-1,4.0590158E-1,8.508231E-1],"categories":[],"categories_nodes":[],"categories_segments":[],"categories_sizes":[],"default_left":[1,1,1,1,1,1,1,1,1,1,1,1,1,1,1,1,1,1,1,0,0,0,1,1,1,1,1,1,1,1,0,1,1,1,1,1,0,1,1,0,0,0,1,1,1,1,1,1,1,1,0,1,0,1,1,1,0,1,1,1,1,1,1,1,1,1,1,0,1,1,0,0,0,1,1,0,0,0,1,0,1,1,1,0,0,0,1,0,0,0,0,1,1,1,0,0,1,1,0,1,1,0,0,1,1,0,1,0,0,0,0,0,0,1,0,1,0,1,0,1,1,0,0,1,0,0,1,1,0,0,0,1,1,0,1,1,0,1,0,1,0,1,1,0,1,1,0,1,1,0,0,0,1,1,0,0,0,1,0,0,0,0,0,0,0,0,1,1,1,1,0,1,0,1,0,0,0,0,0,1,1,1,1,1,0,0,0,1,1,1,1,0,0,0,0,0,0,0,0,0,0,0,0,0,0,0,0,0,0,0,0,0,0,0,0,0,0,0,0,0,0,0,0,0,0,0,0],"id":2,"left_children":[1,3,5,7,9,11,13,15,17,19,21,23,25,27,29,31,33,35,37,-1,-1,-1,39,41,43,45,47,49,51,53,-1,55,57,59,61,63,-1,65,67,-1,-1,-1,69,71,73,75,77,79,81,83,-1,85,-1,87,89,91,-1,93,95,97,99,101,103,105,107,109,111,-1,113,115,-1,-1,-1,117,119,-1,-1,-1,121,-1,123,125,127,-1,-1,-1,129,-1,-1,-1,-1,131,133,135,-1,-1,137,139,-1,141,143,-1,-1,145,147,-1,149,-1,-1,-1,-1,-1,-1,151,-1,153,-1,155,-1,157,159,-1,-1,161,-1,-1,163,165,-1,-1,-1,167,169,-1,171,173,-1,175,-1,177,-1,179,181,-1,183,185,-1,187,189,-1,-1,-1,191,193,-1,-1,-1,195,-1,-1,-1,-1,-1,-1,-1,-1,197,199,201,203,-1,205,-1,207,-1,-1,-1,-1,-1,209,211,213,215,217,-1,-1,-1,219,221,223,225,-1,-1,-1,-1,-1,-1,-1,-1,-1,-1,-1,-1,-1,-1,-1,-1,-1,-1,-1,-1,-1,-1,-1,-1,-1,-1,-1,-1,-1,-1,-1,-1,-1,-1,-1,-1],"loss_changes":[7.624748E4,2.2901953E3,8.9573047E2,4.299082E2,1.448526E2,1.02375024E3,2.0460938E1,1.8826758E2,3.441085E2,5.6740665E0,1.4494385E1,4.9677612E1,5.4621216E1,1.1588254E2,1.0898438E0,3.8591797E1,2.231077E2,2.9101105E1,5.1807816E1,0E0,0E0,0E0,2.119629E0,9.149506E0,3.296612E1,1.8935768E1,1.6786255E1,1.4042583E1,2.790802E0,2.1714783E1,0E0,2.313086E1,3.2177765E1,1.5486389E1,4.7132435E1,3.676117E0,0E0,2.9646448E1,3.8242645E0,0E0,0E0,0E0,2.8049927E0,8.217455E0,1.1461697E1,7.284802E0,5.5641136E0,1.5415665E1,4.2391357E0,4.077278E0,0E0,3.548355E0,0E0,2.5973824E1,2.3266602E-1,1.6919922E1,0E0,1.0608826E1,1.8154055E1,2.9873047E0,1.5399887E1,1.8316822E0,3.8302986E1,3.1303406E-1,4.386652E0,7.029067E0,3.3710928E0,0E0,8.999939E-1,1.3482666E0,0E0,0E0,0E0,1.7403831E0,1.5594185E1,0E0,0E0,0E0,3.857338E0,0E0,5.58461E0,7.860615E0,1.9354248E-1,0E0,0E0,0E0,1.13925934E-1,0E0,0E0,0E0,0E0,9.40625E0,1.7451996E1,4.987793E0,0E0,0E0,1.1563254E1,1.9567566E0,0E0,4.88089E0,1.07028675E1,0E0,0E0,5.4147787E0,1.0144352E1,0E0,2.1577797E0,0E0,0E0,0E0,0E0,0E0,0E0,3.4060822E0,0E0,3.6676025E-1,0E0,2.570343E-1,0E0,3.799181E0,2.3192363E0,0E0,0E0,1.0815201E0,0E0,0E0,2.8424072E0,1.3920441E0,0E0,0E0,0E0,3.1308594E0,1.7658203E1,0E0,8.495865E0,1.2496796E0,0E0,5.81508E0,0E0,6.284485E-1,0E0,1.5683289E0,4.1747684E0,0E0,5.629921E0,1.2532749E0,0E0,4.99197E0,1.2521069E1,0E0,0E0,0E0,3.1243134E-1,2.3684692E-1,0E0,0E0,0E0,5.4047394E-1,0E0,0E0,0E0,0E0,0E0,0E0,0E0,0E0,1.870346E-1,2.0546875E0,5.077957E0,7.781372E0,0E0,3.2725525E0,0E0,4.8350525E-1,0E0,0E0,0E0,0E0,0E0,3.262024E-1,1.4994278E0,3.1510735E-1,4.507193E0,3.7368011E0,0E0,0E0,0E0,3.7254944E0,1.7972679E0,7.4327254E0,1.9544773E0,0E0,0E0,0E0,0E0,0E0,0E0,0E0,0E0,0E0,0E0,0E0,0E0,0E0,0E0,0E0,0E0,0E0,0E0,0E0,0E0,0E0,0E0,0E0,0E0,0E0,0E0,0E0,0E0,0E0,0E0,0E0,0E0,0E0,0E0,0E0,0E0],"parents":[2147483647,0,0,1,1,2,2,3,3,4,4,5,5,6,6,7,7,8,8,9,9,10,10,11,11,12,12,13,13,14,14,15,15,16,16,17,17,18,18,22,22,23,23,24,24,25,25,26,26,27,27,28,28,29,29,31,31,32,32,33,33,34,34,35,35,37,37,38,38,42,42,43,43,44,44,45,45,46,46,47,47,48,48,49,49,51,51,53,53,54,54,55,55,57,57,58,58,59,59,60,60,61,61,62,62,63,63,64,64,65,65,66,66,68,68,69,69,73,73,74,74,78,78,80,80,81,81,82,82,86,86,91,91,92,92,93,93,96,96,97,97,99,99,100,100,103,103,104,104,106,106,113,113,115,115,117,117,119,119,120,120,123,123,126,126,127,127,131,131,132,132,134,134,135,135,137,137,139,139,141,141,142,142,144,144,145,145,147,147,148,148,152,152,153,153,157,157,166,166,167,167,168,168,169,169,171,171,173,173,179,179,180,180,181,181,182,182,183,183,187,187,188,188,189,189,190,190],"right_children":[2,4,6,8,10,12,14,16,18,20,22,24,26,28,30,32,34,36,38,-1,-1,-1,40,42,44,46,48,50,52,54,-1,56,58,60,62,64,-1,66,68,-1,-1,-1,70,72,74,76,78,80,82,84,-1,86,-1,88,90,92,-1,94,96,98,100,102,104,106,108,110,112,-1,114,116,-1,-1,-1,118,120,-1,-1,-1,122,-1,124,126,128,-1,-1,-1,130,-1,-1,-1,-1,132,134,136,-1,-1,138,140,-1,142,144,-1,-1,146,148,-1,150,-1,-1,-1,-1,-1,-1,152,-1,154,-1,156,-1,158,160,-1,-1,162,-1,-1,164,166,-1,-1,-1,168,170,-1,172,174,-1,176,-1,178,-1,180,182,-1,184,186,-1,188,190,-1,-1,-1,192,194,-1,-1,-1,196,-1,-1,-1,-1,-1,-1,-1,-1,198,200,202,204,-1,206,-1,208,-1,-1,-1,-1,-1,210,212,214,216,218,-1,-1,-1,220,222,224,226,-1,-1,-1,-1,-1,-1,-1,-1,-1,-1,-1,-1,-1,-1,-1,-1,-1,-1,-1,-1,-1,-1,-1,-1,-1,-1,-1,-1,-1,-1,-1,-1,-1,-1,-1,-1],"split_conditions":[9.0850665E2,3.15E1,4.565012E0,4.021158E1,6.9991837E0,2.7634853E1,5.310878E0,9.5E0,5.514089E2,1.0497242E1,3.8937955E0,2.2171944E1,2.0873917E1,2.5357765E1,5.9096384E0,2.0274693E2,2.2877998E1,8.5E0,3.812966E1,-1.3017513E-1,-3.83842E-2,1.7451447E-2,4.878337E2,3.5046263E0,3.6321769E0,1.01221643E3,3.1873165E1,3.063888E2,1.0587478E3,2.5776558E1,1.3050261E-1,3.664709E2,5.5E0,1.3008387E1,1.1730471E1,4.5E0,5.0386477E-2,5.5E0,5.3280706E0,7.374412E-2,1.2914647E-1,-4.4267423E-2,1.8209326E2,1.4652107E1,2.066441E1,1.2612239E1,3.9199257E1,2.2327798E3,1.0406667E1,7.120427E1,4.909041E-2,3.341166E1,1.305051E-1,3.05E1,3.0143661E1,1.4430447E2,-1.1326214E-2,4.3792774E1,5.9599536E2,4.988875E2,7.306833E2,3.687323E0,5.389276E2,3.452746E2,3.8709247E2,4.205669E2,2.0657864E2,6.344316E-2,8.5E0,3.268777E2,-7.3636934E-2,-1.1589783E-2,1.05780594E-1,2.6432477E2,1.1846858E2,-1.0026678E-1,1.2826087E-2,-3.7433815E-3,1.3551067E1,-3.8414307E-2,7.906335E0,3.9565876E1,3.8570183E1,-1.17411695E-1,-3.5656165E-2,4.115244E-2,1.906294E2,-7.417295E-2,1.3276349E-1,1.0348422E-1,1.3036536E-1,5.5E0,3.36283E0,5.8252795E2,-3.2874614E-2,-1.1276179E-1,2.7787659E1,6.764821E1,-6.1741646E-2,1.898436E1,3.5311863E0,-6.624336E-2,-1.2036626E-1,1.9614255E0,3.762319E0,-1.311783E-1,4.6702465E1,-1.1889339E-1,-3.6667395E-2,-1.11870594E-1,-6.22238E-3,3.57565E-2,1.179669E-1,3.227682E0,1.2755616E-1,4.161477E2,-7.834601E-2,1.0524517E3,-6.671573E-2,6.321803E2,2.6068075E1,3.476343E-2,1.1609994E-1,1.1967703E2,3.1366117E-2,3.4398448E-2,1.0474324E3,2.0966724E3,1.2962902E-1,9.894783E-2,1.2832634E-1,8.789641E2,5.8052764E0,1.5931207E-3,1.4038599E2,7.849602E2,-4.477371E-2,3.6277527E1,9.916932E-2,4.670306E0,-7.3013775E-2,2.555594E3,7.5E0,5.139939E-2,2.988005E2,4.3392764E2,-6.8387603E-3,1.6374658E2,1.8353622E2,-1.2410038E-1,-6.430155E-2,4.615844E-2,8.194236E0,9.5E0,-9.200433E-2,-1.3146502E-1,-9.377255E-2,2.948144E1,-2.3890363E-2,1.2840594E-3,7.0007175E-2,8.067693E-2,1.3214983E-1,6.362799E-2,1.3141628E-1,7.672341E-2,7.5E0,6.860488E2,2.1918135E1,2.4714563E1,7.866679E-3,2.3512733E1,-1.237261E-2,3.7849274E1,-8.964854E-2,-6.186934E-2,3.5391342E-2,-1.2730108E-1,-8.908503E-2,3.5944288E0,2.1763693E1,5.2430457E2,3.8525293E0,-1.4609855E1,8.133604E-3,-1.1574145E-1,-6.048449E-2,1.7446838E2,2.3249363E1,1.5971424E1,3.4099918E2,9.6874356E-2,1.3027588E-1,-1.2748757E-1,-9.617249E-2,-1.1849694E-1,-7.5847365E-2,9.9532515E-2,1.2769285E-1,-1.2997268E-1,-1.2519304E-1,-1.2072443E-1,-2.930629E-2,-1.2421986E-1,-9.854289E-2,-1.1996737E-1,-8.4489025E-2,-1.2867174E-1,-9.9058285E-2,-1.048382E-1,-1.2616047E-1,-1.1012778E-1,-6.383621E-2,-1.2059466E-1,-8.2479164E-2,-2.5845235E-3,-8.4344454E-2,-1.970729E-2,-9.309688E-2,6.3289874E-3,8.377079E-2,6.240496E-2,1.1597832E-1,-2.6623616E-2,7.283298E-2,6.088524E-2,1.2762347E-1],"split_indices":[2,9,8,6,10,4,8,35,2,39,8,4,6,4,8,42,6,35,4,0,0,0,2,20,20,2,4,3,2,4,0,10,35,39,39,35,0,35,39,0,0,0,33,39,6,39,5,1,39,33,0,4,0,9,4,34,0,5,2,41,2,20,2,2,2,40,33,0,35,41,0,0,0,3,33,0,0,0,39,0,7,4,4,0,0,0,42,0,0,0,0,35,20,41,0,0,6,36,0,6,20,0,0,30,20,0,4,0,0,0,0,0,0,8,0,3,0,26,0,40,6,0,0,34,0,0,2,1,0,0,0,40,8,0,42,2,0,5,0,8,0,1,29,0,41,2,0,3,42,0,0,0,7,35,0,0,0,33,0,0,0,0,0,0,0,0,35,2,6,6,0,6,0,34,0,0,0,0,0,20,39,2,20,18,0,0,0,34,39,15,33,0,0,0,0,0,0,0,0,0,0,0,0,0,0,0,0,0,0,0,0,0,0,0,0,0,0,0,0,0,0,0,0,0,0,0,0],"split_type":[0,0,0,0,0,0,0,0,0,0,0,0,0,0,0,0,0,0,0,0,0,0,0,0,0,0,0,0,0,0,0,0,0,0,0,0,0,0,0,0,0,0,0,0,0,0,0,0,0,0,0,0,0,0,0,0,0,0,0,0,0,0,0,0,0,0,0,0,0,0,0,0,0,0,0,0,0,0,0,0,0,0,0,0,0,0,0,0,0,0,0,0,0,0,0,0,0,0,0,0,0,0,0,0,0,0,0,0,0,0,0,0,0,0,0,0,0,0,0,0,0,0,0,0,0,0,0,0,0,0,0,0,0,0,0,0,0,0,0,0,0,0,0,0,0,0,0,0,0,0,0,0,0,0,0,0,0,0,0,0,0,0,0,0,0,0,0,0,0,0,0,0,0,0,0,0,0,0,0,0,0,0,0,0,0,0,0,0,0,0,0,0,0,0,0,0,0,0,0,0,0,0,0,0,0,0,0,0,0,0,0,0,0,0,0,0,0,0,0,0,0,0,0,0,0,0,0],"sum_hessian":[1.2371479E5,4.4052617E4,7.966217E4,4.3076477E4,9.7614136E2,2.385526E3,7.727665E4,4.2234594E4,8.41882E2,6.94025E1,9.0673883E2,8.674574E2,1.5180684E3,7.461317E2,7.6530516E4,4.0510188E4,1.7244073E3,4.330505E2,4.088315E2,4.5211937E1,2.4190557E1,2.79E1,8.7883887E2,6.141403E2,2.5331712E2,1.3012585E2,1.3879425E3,8.585008E1,6.602816E2,8.899E2,7.564062E4,4.004029E4,4.6989706E2,1.2872285E3,4.3717886E2,4.0967468E2,2.3375814E1,1.0881103E2,3.0002048E2,2.0383873E1,8.5845496E2,3.8935078E1,5.752052E2,5.6608326E1,1.967088E2,5.111735E1,7.900851E1,1.1248749E2,1.2754551E3,6.561478E1,2.023531E1,9.0657646E1,5.6962396E2,5.2669434E1,8.372306E2,4.0002133E4,3.8156864E1,3.5845056E2,1.11446495E2,7.2764355E2,5.5958496E2,6.836942E1,3.6880945E2,3.486571E2,6.1017582E1,6.1856262E1,4.6954765E1,3.480532E1,2.6521515E2,5.431219E2,3.2083355E1,2.0856012E1,3.5752316E1,8.480081E1,1.1190799E2,2.9221012E1,2.189634E1,2.038538E1,5.8623127E1,2.5346582E1,8.714091E1,1.3594998E2,1.139505E3,4.425501E1,2.1359766E1,2.0404451E1,7.02532E1,2.6407276E1,2.6262157E1,3.0620789E1,8.066098E2,3.9547215E4,4.5491827E2,3.1837704E2,4.0073517E1,2.9640202E1,8.18063E1,7.0734393E2,2.0299622E1,4.2121814E2,1.383668E2,2.97254E1,3.8644024E1,7.304783E1,2.957616E2,2.3871652E2,1.09940575E2,3.358969E1,2.7427893E1,4.0021313E1,2.183495E1,2.1804468E1,2.5150297E1,9.652397E1,1.686912E2,5.224906E2,2.0631264E1,6.20926E1,2.2708208E1,6.8630356E1,4.3277626E1,2.1862688E1,3.6760437E1,6.2274906E1,2.4865997E1,3.4340332E1,1.0160964E2,1.8658725E2,9.529178E2,3.5932343E1,3.4320854E1,3.643749E4,3.1097246E3,3.564563E1,4.1927264E2,2.9603494E2,2.2342106E1,5.3979797E1,2.7826496E1,6.866999E2,2.0644062E1,3.104639E2,1.10754234E2,2.0937754E1,1.1742905E2,4.566999E1,2.7377836E1,1.6022876E2,1.3553284E2,8.976997E1,2.0170599E1,2.0261417E1,7.626255E1,5.0235867E2,2.0131931E1,4.1874332E1,2.021827E1,4.734936E1,2.1280998E1,2.190831E1,2.1369316E1,2.0353521E1,4.1921387E1,2.0346645E1,8.1263E1,2.274622E1,1.6384103E2,3.6370906E4,6.65816E1,3.0859514E3,2.3773224E1,3.989692E2,2.030344E1,2.5814304E2,3.7891884E1,2.9678244E1,2.4301556E1,6.6645557E2,2.0244293E1,2.3150015E2,7.8963745E1,5.0349327E1,6.0404907E1,9.70156E1,2.0413443E1,2.3790575E1,2.1879414E1,5.5719925E1,1.0450884E2,9.0022675E1,4.5510166E1,3.0061941E1,4.620061E1,4.806616E2,2.1697088E1,2.6116936E1,2.1232426E1,2.8714859E1,1.3512617E2,3.3365523E4,3.0053835E3,4.6228363E1,2.0353231E1,2.7655247E3,3.204267E2,3.1225565E2,8.671357E1,2.2425963E2,3.3883423E1,6.642768E1,1.6507248E2,4.639477E1,3.2568974E1,3.0062546E1,2.0286781E1,2.7721045E1,3.2683865E1,2.0322647E1,7.6692955E1,2.589299E1,2.9826935E1,2.1819569E1,8.268927E1,6.8700325E1,2.132235E1,2.4835909E1,2.067426E1],"tree_param":{"num_deleted":"0","num_feature":"47","num_nodes":"227","size_leaf_vector":"0"}},{"base_weights":[-2.6575953E-1,7.902082E-1,-8.49399E-1,8.250044E-1,-7.214825E-1,-2.2395265E-1,-8.6717016E-1,8.386814E-1,1.2988248E-1,2.6643646E-1,-8.324889E-1,6.190863E-1,-7.3410773E-1,-6.780825E-1,-8.694427E-1,8.498916E-1,4.699166E-1,7.4554855E-1,-5.4095453E-1,7.093281E-1,-4.32274E-1,1.7203291E-1,-8.560446E-1,7.491992E-1,1.7475982E-1,-5.197647E-2,-7.855502E-1,3.9621E-1,-8.439177E-1,-8.205056E-1,-8.6997086E-1,8.5124904E-1,-1.390112E-1,7.081249E-1,-1.22695945E-1,7.9899883E-1,-3.2472584E-1,1.342343E-1,-7.26088E-1,8.3779675E-1,4.223377E-1,-6.842397E-1,-8.6573535E-1,8.2624483E-1,5.184362E-1,5.972793E-1,-2.3172668E-1,3.523453E-1,-4.5482236E-1,-5.191092E-1,-8.452481E-1,5.905583E-1,-4.534412E-1,-6.6572666E-1,-8.685288E-1,-2.6040262E-1,-8.6556363E-1,8.6030924E-1,7.6746786E-1,3.727865E-1,-6.9024813E-1,7.6678973E-1,4.1243827E-1,3.6842975E-1,-3.6393923E-1,8.397889E-1,5.6450236E-1,4.966045E-1,-6.972059E-1,-2.4359733E-1,-7.705388E-1,-4.5276064E-1,-8.599276E-1,8.4312433E-1,4.2326382E-1,1.19278856E-1,6.3496023E-1,2.0608877E-1,7.068228E-1,-5.336613E-1,3.03676E-1,-8.1260495E-2,6.629889E-1,-7.348905E-1,-1.3823283E-1,1.2984283E-1,-6.864576E-1,-7.7777696E-1,-8.6660975E-1,8.29644E-1,3.369774E-1,-2.8169915E-1,-7.997674E-1,3.7368846E-1,-8.896319E-1,8.6492854E-1,8.1252533E-1,8.1289274E-1,1.8906769E-1,8.0733865E-1,6.15213E-1,7.224992E-1,8.223889E-2,5.934221E-1,-8.3266035E-2,-5.811729E-1,9.472168E-2,8.717963E-1,7.599748E-1,7.802026E-1,2.343804E-1,7.11243E-1,6.4907454E-2,-5.341713E-1,-8.041875E-1,8.5498613E-1,5.6958866E-1,7.893307E-1,3.283025E-1,7.970853E-1,5.108407E-1,-1.459321E-1,-7.3829496E-1,4.7730896E-1,-2.7454376E-1,-2.547553E-1,-7.613278E-1,-4.0961564E-1,-8.0713004E-1,6.3048357E-1,-5.113701E-2,-6.2706816E-1,-8.6747426E-1,8.6522514E-1,5.9920585E-1,8.3652186E-1,6.7055887E-1,8.2091993E-1,2.5177085E-1,3.304256E-1,-5.947475E-1,4.343767E-1,8.2302755E-1,7.128102E-1,3.7073708E-1,8.4071976E-1,4.4717443E-1,4.2794093E-1,-1.9824843E-1,7.4557614E-1,3.2234618E-1,-1.7227492E-1,-6.8829465E-1,3.5586777E-1,-5.038349E-1,8.4728855E-1,4.8735645E-1,-6.348617E-1,-8.23311E-1,8.4584713E-1,5.8486784E-1,-5.3416125E-2,6.5738726E-1,-8.159791E-1,-4.395734E-1,-4.844118E-1,-8.3934253E-1,8.65738E-1,7.834935E-1,6.146506E-1,8.3957684E-1,7.199054E-1,3.265913E-1,3.014049E-1,8.25054E-1,6.2846154E-1,-9.916977E-2,5.788987E-1,5.5848464E-2,-3.673478E-1,-8.2047844E-1,8.349236E-1,5.341488E-1,7.857459E-1,4.2457303E-1,1.2903033E-1,5.435342E-1,5.6676084E-1,8.49098E-1,-4.1217488E-1,-7.3622763E-1,6.3119376E-1,7.2876886E-2,-6.242074E-1,-8.5041046E-1,-6.96929E-1,-8.658214E-1,8.6920136E-1,8.563899E-1,8.2882965E-1,3.7429464E-1,7.8843886E-1,4.0770075E-1,8.471335E-1,7.7219725E-1,4.864877E-1,7.8914934E-1,5.973091E-1,-6.2502967E-3,8.3926034E-1,7.076492E-1,7.610294E-1,3.5379112E-1,-2.0489696E-1,4.9051568E-1,8.444822E-1,5.6355935E-1,6.5036684E-1,8.725899E-1,-8.459616E-1,-6.152919E-1],"categories":[],"categories_nodes":[],"categories_segments":[],"categories_sizes":[],"default_left":[1,1,1,1,1,1,1,1,1,1,1,1,1,1,1,1,1,1,1,1,0,0,1,1,1,1,1,1,1,1,0,1,1,1,1,1,0,1,1,0,0,1,0,1,1,1,1,1,1,1,1,1,0,1,0,1,0,1,1,0,0,1,1,1,1,1,1,1,0,0,1,0,0,1,0,0,1,0,1,1,0,0,0,0,0,1,1,1,0,0,1,0,1,0,0,1,1,1,1,1,1,1,1,1,0,1,1,0,1,0,0,0,0,0,1,0,0,1,1,0,0,0,0,0,0,0,1,0,1,0,0,0,0,1,0,1,1,1,1,1,1,0,1,1,1,0,0,0,0,1,0,0,1,1,0,0,0,0,0,0,0,0,0,1,0,0,1,1,1,1,1,1,1,0,1,0,0,1,1,0,0,1,0,1,0,0,0,0,0,0,1,0,0,0,0,0,0,0,0,0,0,0,0,0,0,0,0,0,0,0,0,0,0,0,0,0,0,0,0,0,0],"id":3,"left_children":[1,3,5,7,9,11,13,15,17,19,21,23,25,27,29,31,33,35,37,39,-1,-1,41,43,45,47,49,51,53,55,-1,57,59,61,63,65,-1,67,69,-1,-1,71,-1,73,75,77,79,81,83,85,87,89,-1,91,-1,93,-1,95,97,-1,-1,99,101,103,105,107,109,111,-1,-1,113,-1,-1,115,-1,-1,117,-1,119,121,-1,-1,-1,-1,-1,123,125,127,-1,-1,129,-1,131,-1,-1,133,135,137,139,141,143,145,147,149,-1,151,153,-1,155,-1,-1,-1,-1,-1,157,-1,-1,159,161,-1,-1,-1,-1,-1,-1,-1,163,-1,165,-1,-1,-1,-1,167,-1,169,171,173,175,177,179,-1,181,183,185,-1,-1,-1,-1,187,-1,-1,189,191,-1,-1,-1,-1,-1,-1,-1,-1,-1,193,-1,-1,195,197,199,201,203,205,207,-1,209,-1,-1,211,213,-1,-1,215,-1,217,-1,-1,-1,-1,-1,-1,219,-1,-1,-1,-1,-1,-1,-1,-1,-1,-1,-1,-1,-1,-1,-1,-1,-1,-1,-1,-1,-1,-1,-1,-1,-1,-1,-1,-1,-1,-1],"loss_changes":[7.6215016E4,2.3160996E3,8.850469E2,4.0898633E2,1.0889923E2,9.4740894E2,3.2691406E1,1.7405078E2,3.4382037E2,3.1518425E1,2.1233337E1,4.788965E1,4.810968E1,1.6499481E2,1.265625E0,5.509375E1,1.7615222E2,2.5086914E1,4.99097E1,1.936121E0,0E0,0E0,8.57605E-1,1.0989197E1,3.267516E1,1.6007792E1,1.9855469E1,2.0789156E1,2.9345093E0,2.0836487E1,0E0,3.0384766E1,1.6337467E1,1.5118195E1,4.2603615E1,3.482483E0,0E0,2.6436985E1,6.523117E0,0E0,0E0,1.6956997E0,0E0,2.9064636E0,7.5253716E0,3.8468742E0,1.5887129E1,6.670535E0,4.2584667E0,2.5733704E1,8.2598877E-1,5.8786697E0,0E0,4.9986954E0,0E0,2.5695517E1,0E0,7.4414062E0,1.0495117E2,0E0,0E0,4.059601E0,1.5243784E1,1.2099564E1,2.4055489E1,2.3233032E-1,4.398716E0,5.596323E0,0E0,0E0,1.845459E0,0E0,0E0,1.0038147E0,0E0,0E0,5.718136E0,0E0,8.731308E-1,4.8560047E0,0E0,0E0,0E0,0E0,0E0,7.0512886E0,5.878792E0,2.4794006E0,0E0,0E0,5.8392553E0,0E0,3.2930756E-1,0E0,0E0,2.1308594E0,1.0575684E1,1.649878E1,3.2615852E1,3.0459595E0,3.5690498E0,2.1289673E0,7.2130885E0,3.0291958E0,0E0,7.047432E0,1.2415145E1,0E0,2.1593857E0,0E0,0E0,0E0,0E0,0E0,2.8172302E-1,0E0,0E0,4.6757126E-1,5.561149E0,0E0,0E0,0E0,0E0,0E0,0E0,0E0,2.4480133E0,0E0,2.086197E0,0E0,0E0,0E0,0E0,7.3046875E-1,0E0,1.376831E0,7.8733826E0,7.6030273E0,7.1679225E0,1.6923914E1,2.011753E0,0E0,1.4683533E0,2.0574532E0,1.9313569E0,0E0,0E0,0E0,0E0,4.4452286E-1,0E0,0E0,1.4079247E0,4.2460732E0,0E0,0E0,0E0,0E0,0E0,0E0,0E0,0E0,0E0,3.6235046E-1,0E0,0E0,2.1362305E-1,3.3789062E-1,3.770691E0,1.1768236E0,7.4694824E-1,6.355072E0,5.569197E0,0E0,5.455078E0,0E0,0E0,5.075466E0,1.3607156E1,0E0,0E0,9.0722656E-1,0E0,4.858322E-1,0E0,0E0,0E0,0E0,0E0,0E0,9.247589E-1,0E0,0E0,0E0,0E0,0E0,0E0,0E0,0E0,0E0,0E0,0E0,0E0,0E0,0E0,0E0,0E0,0E0,0E0,0E0,0E0,0E0,0E0,0E0,0E0,0E0,0E0,0E0,0E0,0E0,0E0],"parents":[2147483647,0,0,1,1,2,2,3,3,4,4,5,5,6,6,7,7,8,8,9,9,10,10,11,11,12,12,13,13,14,14,15,15,16,16,17,17,18,18,19,19,22,22,23,23,24,24,25,25,26,26,27,27,28,28,29,29,31,31,32,32,33,33,34,34,35,35,37,37,38,38,41,41,43,43,44,44,45,45,46,46,47,47,48,48,49,49,50,50,51,51,53,53,55,55,57,57,58,58,61,61,62,62,63,63,64,64,65,65,66,66,67,67,70,70,73,73,76,76,78,78,79,79,85,85,86,86,87,87,90,90,92,92,95,95,96,96,97,97,98,98,99,99,100,100,101,101,102,102,103,103,105,105,106,106,108,108,114,114,117,117,118,118,126,126,128,128,133,133,135,135,136,136,137,137,138,138,139,139,140,140,142,142,143,143,144,144,149,149,152,152,153,153,163,163,166,166,167,167,168,168,169,169,170,170,171,171,172,172,174,174,177,177,178,178,181,181,183,183,190,190],"right_children":[2,4,6,8,10,12,14,16,18,20,22,24,26,28,30,32,34,36,38,40,-1,-1,42,44,46,48,50,52,54,56,-1,58,60,62,64,66,-1,68,70,-1,-1,72,-1,74,76,78,80,82,84,86,88,90,-1,92,-1,94,-1,96,98,-1,-1,100,102,104,106,108,110,112,-1,-1,114,-1,-1,116,-1,-1,118,-1,120,122,-1,-1,-1,-1,-1,124,126,128,-1,-1,130,-1,132,-1,-1,134,136,138,140,142,144,146,148,150,-1,152,154,-1,156,-1,-1,-1,-1,-1,158,-1,-1,160,162,-1,-1,-1,-1,-1,-1,-1,164,-1,166,-1,-1,-1,-1,168,-1,170,172,174,176,178,180,-1,182,184,186,-1,-1,-1,-1,188,-1,-1,190,192,-1,-1,-1,-1,-1,-1,-1,-1,-1,194,-1,-1,196,198,200,202,204,206,208,-1,210,-1,-1,212,214,-1,-1,216,-1,218,-1,-1,-1,-1,-1,-1,220,-1,-1,-1,-1,-1,-1,-1,-1,-1,-1,-1,-1,-1,-1,-1,-1,-1,-1,-1,-1,-1,-1,-1,-1,-1,-1,-1,-1,-1,-1],"split_conditions":[9.0850665E2,3.15E1,4.3826036E0,4.021083E1,4.1320477E0,2.750393E1,5.3107224E0,1.441077E2,5.514089E2,5.4477726E1,4.2153012E2,2.2516173E2,1.9585564E1,2.667548E1,5.8805666E0,6.389779E2,2.3168081E1,1.7505927E2,3.635924E1,8.866484E1,-6.484111E-2,2.5804937E-2,3.25E1,2.1535213E1,1.7354996E1,1.0399896E3,3.5770073E1,2.65E1,1.045897E3,2.7717731E1,-1.3049564E-1,6.860488E2,5.95E1,7.651657E2,6.1289636E2,1.14170364E2,-4.870888E-2,1.3228168E2,1.8940809E0,1.2566952E-1,6.335066E-2,8.511075E1,-1.2986031E-1,1.2646461E3,3.7144184E0,3.7780657E0,4.0136533E0,3.7986705E0,3.8668852E0,1.2279285E1,5.85E1,8.582871E1,-6.801619E-2,3.5952103E1,-1.3027932E-1,3.05E1,-1.2983455E-1,7.34299E1,2.9062008E1,5.5917975E-2,-1.03537224E-1,6.45E1,1.4241723E1,5.75E1,3.972353E0,3.452746E2,4.1972565E2,2.5801468E2,-1.0458089E-1,-3.65396E-2,6.391848E2,-6.79141E-2,-1.2898915E-1,3.0618924E2,6.348958E-2,1.789183E-2,2.6682905E3,3.0913316E-2,1.0811199E3,2.0183748E1,4.5551404E-2,-1.2189074E-2,9.944834E-2,-1.1023358E-1,-2.0734925E-2,2.5489055E3,2.1546958E3,3.8731323E1,-1.2999147E-1,1.2444661E-1,1.713536E1,-4.2254873E-2,4.5209064E1,5.605327E-2,-1.334448E-1,6.932262E2,2.3809288E1,8.05E1,6.85E1,3.0757065E0,2.0689064E1,3.9735425E2,5.387346E1,4.770647E0,-1.2489906E-2,6.6941406E2,3.7140662E2,1.3076945E-1,4.30804E1,1.170304E-1,3.5157062E-2,1.0668645E-1,9.736119E-3,-8.01257E-2,8.04979E1,1.2824793E-1,8.54383E-2,1.4895694E2,2.95E1,1.195628E-1,7.662611E-2,-2.1889815E-2,-1.10744245E-1,7.159635E-2,-4.1181564E-2,-3.8213294E-2,8.053677E0,-6.144235E-2,8.319664E0,9.457254E-2,-7.670552E-3,-9.406023E-2,-1.3012114E-1,5.758632E0,8.988088E-2,2.822558E0,1.5782341E2,2.9437504E0,2.0341452E1,2.425201E1,4.3014097E0,6.5156505E-2,2.3939507E2,9.9955213E-1,-6.400487E0,1.2610798E-1,6.707617E-2,6.419114E-2,-2.9737266E-2,3.7881598E0,4.835193E-2,-2.5841238E-2,1.6686614E3,5.95E1,-7.557524E-2,1.2709329E-1,7.310347E-2,-9.522926E-2,-1.2349665E-1,1.2687707E-1,8.773018E-2,-8.01242E-3,9.860809E-2,1.0807723E2,-6.5936014E-2,-7.266177E-2,1.2003407E1,4.7013412E2,4.95E1,2.240862E2,3.2007626E1,3.6043916E0,1.9364376E1,4.5210734E-2,2.335054E1,9.426924E-2,-1.4875466E-2,1.0360521E1,1.55E1,-5.5102173E-2,-1.2307177E-1,8.6314514E1,8.012232E-2,9.986856E-1,6.368596E-2,1.935455E-2,8.153014E-2,8.501413E-2,1.2736471E-1,-6.1826233E-2,3.5590348E0,9.4679065E-2,1.0931533E-2,-9.363111E-2,-1.2756157E-1,-1.0453935E-1,-1.2987322E-1,1.3038021E-1,1.2845849E-1,1.2432445E-1,5.6144197E-2,1.1826583E-1,6.1155114E-2,1.2707004E-1,1.15829594E-1,7.2973154E-2,1.183724E-1,8.959637E-2,-9.3754457E-4,1.2588906E-1,1.0614738E-1,1.1415442E-1,5.306867E-2,-3.0734545E-2,7.357735E-2,1.2667233E-1,8.453391E-2,9.7555034E-2,1.3088849E-1,-1.2689424E-1,-9.2293784E-2],"split_indices":[2,9,8,6,8,4,8,34,2,33,2,32,6,4,8,41,6,34,4,41,0,0,9,4,39,2,4,9,2,4,0,2,0,2,2,32,0,33,39,0,0,33,0,2,20,20,20,20,20,39,0,32,0,4,0,9,0,33,4,0,0,0,39,0,20,2,2,41,0,0,2,0,0,41,0,0,1,0,26,6,0,0,0,0,0,1,1,4,0,0,39,0,4,0,0,24,6,0,0,20,39,32,24,30,0,17,33,0,4,0,0,0,0,0,32,0,0,42,31,0,0,0,0,0,0,0,7,0,15,0,0,0,0,8,0,20,42,20,4,6,8,0,42,16,18,0,0,0,0,20,0,0,1,0,0,0,0,0,0,0,0,0,0,33,0,0,39,2,0,17,39,20,39,0,4,0,0,39,31,0,0,36,0,16,0,0,0,0,0,0,20,0,0,0,0,0,0,0,0,0,0,0,0,0,0,0,0,0,0,0,0,0,0,0,0,0,0,0,0,0,0],"split_type":[0,0,0,0,0,0,0,0,0,0,0,0,0,0,0,0,0,0,0,0,0,0,0,0,0,0,0,0,0,0,0,0,0,0,0,0,0,0,0,0,0,0,0,0,0,0,0,0,0,0,0,0,0,0,0,0,0,0,0,0,0,0,0,0,0,0,0,0,0,0,0,0,0,0,0,0,0,0,0,0,0,0,0,0,0,0,0,0,0,0,0,0,0,0,0,0,0,0,0,0,0,0,0,0,0,0,0,0,0,0,0,0,0,0,0,0,0,0,0,0,0,0,0,0,0,0,0,0,0,0,0,0,0,0,0,0,0,0,0,0,0,0,0,0,0,0,0,0,0,0,0,0,0,0,0,0,0,0,0,0,0,0,0,0,0,0,0,0,0,0,0,0,0,0,0,0,0,0,0,0,0,0,0,0,0,0,0,0,0,0,0,0,0,0,0,0,0,0,0,0,0,0,0,0,0,0,0,0,0,0,0,0,0,0,0,0,0,0,0,0,0],"sum_hessian":[1.2366247E5,4.4019133E4,7.9643336E4,4.302914E4,9.8999194E2,2.200807E3,7.744253E4,4.219865E4,8.30495E2,9.986118E1,8.9013074E2,8.296252E2,1.3711818E3,9.2325146E2,7.651928E4,4.0952418E4,1.2462291E3,4.3299707E2,3.974979E2,6.1110115E1,3.8751072E1,2.0250559E1,8.698802E2,6.41181E2,1.884442E2,9.629615E1,1.2748856E3,1.2327537E2,7.9997614E2,8.335593E2,7.568572E4,4.089642E4,5.59972E1,8.887783E2,3.574508E2,4.1264285E2,2.0354218E1,8.559704E1,3.1190088E2,4.088781E1,2.0222305E1,5.02698E1,8.196104E2,4.787564E2,1.6242459E2,9.216969E1,9.6274506E1,4.81226E1,4.8173546E1,2.3513557E2,1.03975E3,1.0057491E2,2.2700453E1,1.00485245E2,6.9949084E2,6.2568398E1,7.709909E2,3.6897043E4,3.9993765E3,2.9205235E1,2.6791967E1,7.403066E2,1.4847174E2,1.1757108E2,2.398797E2,3.4930148E2,6.3341347E1,5.989532E1,2.5701721E1,2.6857439E1,2.8504343E2,2.3234312E1,2.7035484E1,4.5846082E2,2.0295586E1,3.715893E1,1.2526566E2,2.0793913E1,7.137578E1,6.1561058E1,3.471345E1,2.0394188E1,2.7728415E1,2.4860048E1,2.3313498E1,4.825069E1,1.8688487E2,2.5902524E2,7.807248E2,5.0597733E1,4.9977184E1,2.6801207E1,7.368404E1,3.1366083E1,3.1202316E1,3.362899E4,3.268054E3,3.707779E3,2.9159735E2,5.8064874E2,1.5965784E2,7.595814E1,7.25136E1,7.827038E1,3.9300705E1,1.626007E2,7.727901E1,2.4223618E2,1.07065315E2,3.7485256E1,2.5856089E1,3.9572456E1,2.0322863E1,3.7624268E1,2.4741916E2,4.373688E2,2.1092022E1,8.227481E1,4.2990852E1,4.6768642E1,2.460714E1,2.1858273E1,3.9702785E1,2.5854813E1,2.239588E1,2.8271864E1,1.5861302E2,2.0231098E1,2.3879413E2,2.8101404E1,2.187578E1,2.364204E1,5.0041996E1,3.358925E4,3.974191E1,2.7913425E3,4.7671143E2,3.6550286E3,5.2750458E1,2.4753403E2,4.406332E1,2.4597456E1,5.560513E2,1.12736595E2,4.692124E1,5.1703724E1,2.4254417E1,3.2245346E1,4.026826E1,4.9010506E1,2.9259874E1,3.429611E1,1.283046E2,5.4086777E1,2.319223E1,7.9496376E1,2.7568941E1,2.8577986E1,2.1884117E2,6.2000175E1,2.0274632E1,2.029155E1,2.26993E1,1.3427057E2,2.4342442E1,2.3127846E1,2.1566629E2,3.337027E4,2.1897849E2,4.065863E1,2.7506838E3,4.1594577E2,6.0765648E1,2.9438906E1,3.6255898E3,2.5060434E1,2.7690022E1,1.2936206E2,1.1817197E2,2.3259369E1,2.080395E1,5.322432E2,2.3808079E1,8.859294E1,2.4143654E1,2.0288551E1,2.663269E1,2.0344261E1,2.8666245E1,2.0398308E1,1.0790629E2,2.6790989E1,2.7295788E1,2.3349606E1,1.1092097E2,3.8095295E1,1.7757098E2,2.4281912E4,9.088356E3,1.9621397E2,2.2764513E1,2.0572697E1,2.0085934E1,2.4628953E3,2.8778864E2,9.699758E1,3.189482E2,3.3071922E1,2.7693726E1,3.2287524E3,3.968372E2,7.0191E1,5.917106E1,7.4193726E1,4.397825E1,5.1209326E2,2.014996E1,3.7939247E1,5.065369E1,5.343008E1,5.4476204E1],"tree_param":{"num_deleted":"0","num_feature":"47","num_nodes":"221","size_leaf_vector":"0"}},{"base_weights":[2.3916896E-1,-7.117391E-1,7.645203E-1,-7.4189276E-1,6.427454E-1,2.9464272E-1,7.8249294E-1,-7.5431955E-1,-1.1229361E-1,-2.778477E-1,7.400308E-1,-5.7086474E-1,6.9274396E-1,5.7883894E-1,7.837137E-1,-7.691888E-1,-4.8940882E-1,-6.524136E-1,4.9402276E-1,-5.032509E-1,4.5879382E-1,4.2327973E-1,7.63383E-1,2.3427132E-1,-6.2874603E-1,1.9787005E-1,7.4436873E-1,-5.7103956E-1,7.4152535E-1,7.058668E-1,7.847598E-1,-7.715915E-1,-4.627789E-1,-6.587776E-1,3.69328E-2,-7.1337575E-1,3.5128763E-1,-8.1890285E-2,6.6860235E-1,-6.847314E-1,-1.5597202E-1,-2.4315977E-1,7.8139615E-1,6.964181E-1,7.81224E-1,-4.4460067E-1,7.123476E-1,-7.085725E-1,-3.155959E-1,-1.7302611E-1,5.3214717E-1,3.2497212E-2,7.5315183E-1,-3.3338186E-1,-7.432687E-1,3.1415743E-1,7.697005E-1,5.5320065E-2,7.568813E-1,5.91466E-1,7.848063E-1,-7.723225E-1,-1.21471144E-1,-6.648631E-1,-1.04747705E-1,-7.180926E-1,-4.984956E-1,-4.0856028E-1,2.603615E-1,-7.657191E-1,-5.1838756E-1,-5.0124574E-1,5.401067E-1,5.3867036E-1,7.7294725E-1,-8.140751E-1,-5.057784E-1,1.4770125E-1,7.6917577E-1,-7.387435E-1,-4.8689857E-1,-5.512159E-1,2.4271645E-1,-3.3175725E-1,2.690517E-1,7.837536E-1,2.5955728E-1,6.1390674E-1,7.7050173E-1,6.179518E-1,7.803435E-1,-6.849921E-1,6.8546796E-1,5.147128E-1,7.8028697E-1,-7.7892387E-1,-7.2730637E-1,-5.7987E-1,3.9258417E-1,-7.382784E-1,-4.3226697E-2,-5.149193E-1,1.8802701E-1,-7.45139E-1,-6.1060107E-1,-5.6291336E-1,1.11609526E-1,-5.228213E-1,3.1582266E-1,-4.7768572E-1,3.8380417E-1,-7.794516E-1,-5.701104E-1,-6.51599E-1,-8.7024905E-2,-7.44766E-1,-1.690999E-1,3.1218597E-1,7.30993E-1,5.202231E-1,8.0421704E-1,-7.7524567E-1,-6.718338E-1,-6.7701614E-1,-1.5504313E-2,-6.618406E-1,-3.1462526E-1,4.6956682E-1,-4.6303682E-2,-5.96922E-1,-6.8761095E-2,-6.1271034E-2,6.6275936E-1,1.4854382E-1,6.915193E-1,6.378908E-1,7.7843994E-1,-4.609607E-2,7.0309037E-1,-7.824591E-1,-7.558437E-1,-7.482959E-1,-5.850553E-1,-7.799261E-1,-4.2814824E-1,-7.311391E-1,-2.3848562E-1,-4.864456E-2,6.223516E-1,-7.5184494E-1,-5.451574E-1,-7.3741734E-1,-4.3087885E-1,-6.2506926E-1,-2.6251048E-1,-1.7208189E-1,4.0591028E-1,-2.4971631E-1,-6.410498E-1,-6.601849E-1,-2.3221545E-1,4.89848E-1,-9.743197E-2,-7.482984E-1,-4.671836E-1,4.1877188E-2,6.6231906E-1,5.897001E-1,8.0481637E-1,-7.8641194E-1,-5.9716135E-1,-7.02132E-1,-4.1564247E-1,-8.037819E-1,-5.418834E-1,-7.307426E-1,-4.3697163E-1,4.694404E-1,7.619907E-1,7.340858E-1,3.1988943E-1,5.737727E-1,7.696665E-1,-7.828096E-1,-7.074078E-1,-7.626729E-1,1.0725098E-2,-7.5825727E-1,-6.502651E-1,-6.290148E-1,-1.4622836E-1,-3.2304016E-1,2.1959625E-1,-5.398055E-1,-7.5613004E-1,-7.766354E-1,-5.7959133E-1,-1.01715475E-1,-5.680939E-1,-7.481956E-1,-5.1330805E-1,-4.92326E-1,1.9538982E-2,6.278004E-2,-4.8695847E-1,-7.303618E-1,-3.453964E-1,1.1245079E-1,6.815963E-1,-4.2187113E-1,3.1943786E-1,-7.2904414E-1,-5.068618E-1,-5.686633E-1,-8.1493783E-1,2.0841603E-1,7.1472234E-1,5.776607E-1,7.870519E-1,-7.3220813E-1,-5.600525E-1,-7.6885086E-1,-5.740237E-1,-7.599409E-1,-4.8996568E-1,-2.0944421E-1,-6.81424E-1,-6.676518E-1,-2.4568772E-1,-4.684724E-1,3.6623058E-1,-7.6165646E-1,-6.0592383E-1,-6.7210823E-1,-3.221035E-1,7.484155E-2,-5.907265E-1,-5.678347E-1,-7.762386E-1,5.5697274E-1,-7.354055E-2,7.224274E-1,4.2000592E-1,-6.3439035E-1,-7.8604627E-1],"categories":[],"categories_nodes":[],"categories_segments":[],"categories_sizes":[],"default_left":[1,1,1,1,1,1,1,1,1,1,1,1,1,1,1,1,1,1,1,1,0,1,1,1,1,1,1,1,1,1,1,1,1,1,1,1,0,1,1,1,0,0,0,1,0,0,0,1,1,1,1,0,1,0,0,0,1,1,1,0,0,1,1,1,1,1,1,1,1,1,1,1,0,1,0,0,0,0,1,1,1,1,1,1,0,0,1,1,1,0,0,0,0,1,0,1,1,0,0,1,0,1,1,1,1,1,1,1,0,1,1,0,0,1,0,0,0,1,1,0,0,1,1,1,0,1,0,0,0,0,0,0,0,0,1,1,0,0,1,1,1,1,1,0,0,0,0,1,0,1,0,1,1,1,1,0,0,1,1,0,0,1,1,0,0,0,0,0,0,0,0,1,0,0,0,1,0,1,0,1,0,0,0,0,1,1,0,1,1,1,1,0,0,0,1,0,0,0,1,0,1,0,0,0,0,1,0,1,1,0,0,1,0,0,0,0,0,0,0,0,0,0,0,0,0,0,0,0,0,0,0,0,0,0,0,0,0,0,0,0,0,0,0,0,0],"id":4,"left_children":[1,3,5,7,9,11,13,15,17,19,21,23,25,27,29,31,33,35,37,39,-1,41,43,45,47,49,51,53,55,57,59,61,63,65,67,69,-1,71,73,75,-1,-1,-1,77,-1,-1,-1,79,81,83,85,-1,87,-1,-1,-1,89,91,93,-1,-1,95,97,99,101,103,105,107,109,111,113,115,-1,117,-1,-1,-1,-1,119,121,123,125,127,129,-1,-1,131,133,135,-1,-1,-1,-1,137,-1,139,141,-1,-1,143,-1,145,147,149,151,153,155,157,-1,159,161,-1,-1,163,-1,-1,-1,165,167,-1,-1,169,171,173,-1,175,-1,-1,-1,-1,-1,-1,-1,-1,177,179,-1,-1,181,183,185,187,189,-1,-1,-1,-1,191,-1,193,-1,195,197,199,201,-1,-1,203,205,-1,-1,207,209,-1,-1,-1,-1,-1,-1,-1,-1,211,-1,-1,-1,213,-1,215,-1,217,-1,-1,-1,-1,219,221,-1,223,225,227,229,-1,-1,-1,231,-1,-1,-1,233,-1,235,-1,-1,-1,-1,237,-1,239,241,-1,-1,243,-1,-1,-1,-1,-1,-1,-1,-1,-1,-1,-1,-1,-1,-1,-1,-1,-1,-1,-1,-1,-1,-1,-1,-1,-1,-1,-1,-1,-1,-1,-1,-1,-1],"loss_changes":[5.85557E4,1.7041367E3,6.37375E2,3.1916992E2,8.1609375E1,9.5934686E2,1.7621094E1,1.5724219E2,2.593546E2,1.4775977E1,5.7594604E0,4.1034943E1,4.8565796E1,8.219525E1,5.3359375E0,2.7539062E1,1.8985089E2,2.5873322E1,3.7579468E1,4.1506214E0,0E0,1.4201214E1,3.694458E-1,1.9651192E1,2.0244507E1,2.259261E1,1.076886E1,1.9929657E0,4.3744965E0,3.2098267E1,1.796875E-1,1.7767578E1,2.1438316E1,1.4958496E1,5.1799553E1,3.635666E0,0E0,2.3148758E1,3.4681091E0,6.083641E-1,0E0,0E0,0E0,6.676117E0,0E0,0E0,0E0,3.9987488E0,2.2251009E1,6.178996E0,6.3600845E0,0E0,3.6464844E0,0E0,0E0,0E0,9.754944E-2,3.382484E1,4.6880493E0,0E0,0E0,1.0589844E1,1.0455309E1,8.631409E0,1.3118892E1,2.9570923E0,1.7293793E1,1.4554993E1,3.1750435E1,3.8671875E-1,4.9260693E0,4.1534424E0,0E0,5.473957E0,0E0,0E0,0E0,0E0,8.894882E-1,8.753967E-1,7.249075E0,2.89423E0,3.3386924E0,4.4433103E0,0E0,0E0,6.1759605E0,6.8985977E0,1.095398E0,0E0,0E0,0E0,0E0,8.703257E0,0E0,2.0800781E0,1.3945068E1,0E0,0E0,1.8581543E0,0E0,2.5410948E0,6.6096373E0,8.414917E-1,5.185852E0,7.2434616E0,3.635318E0,4.7008553E0,0E0,2.090784E0,1.5224281E1,0E0,0E0,8.2914734E-1,0E0,0E0,0E0,5.8270435E0,2.5605392E-1,0E0,0E0,2.5300598E-1,1.3326569E0,5.5285454E-1,0E0,9.181061E-1,0E0,0E0,0E0,0E0,0E0,0E0,0E0,0E0,2.2380981E0,2.5475082E0,0E0,0E0,8.7869644E-2,1.9335938E-1,2.292212E1,3.602539E0,1.1944763E1,0E0,0E0,0E0,0E0,3.1886442E0,0E0,4.0982056E-1,0E0,4.1745758E-1,4.562908E0,4.1292877E0,4.529937E0,0E0,0E0,3.5239623E0,2.5051308E0,0E0,0E0,1.7570255E1,7.510364E0,0E0,0E0,0E0,0E0,0E0,0E0,0E0,0E0,6.0634613E-1,0E0,0E0,0E0,3.5051537E-1,0E0,2.5758657E0,0E0,1.1752319E-1,0E0,0E0,0E0,0E0,1.0961151E-1,4.61499E0,0E0,1.3447266E0,5.2676697E0,8.23143E0,9.768942E0,0E0,0E0,0E0,2.6889038E-1,0E0,0E0,0E0,1.6254063E0,0E0,8.017773E0,0E0,0E0,0E0,0E0,1.5051651E-1,0E0,6.932516E0,1.421608E0,0E0,0E0,3.6961365E-1,0E0,0E0,0E0,0E0,0E0,0E0,0E0,0E0,0E0,0E0,0E0,0E0,0E0,0E0,0E0,0E0,0E0,0E0,0E0,0E0,0E0,0E0,0E0,0E0,0E0,0E0,0E0,0E0,0E0,0E0,0E0,0E0,0E0],"parents":[2147483647,0,0,1,1,2,2,3,3,4,4,5,5,6,6,7,7,8,8,9,9,10,10,11,11,12,12,13,13,14,14,15,15,16,16,17,17,18,18,19,19,21,21,22,22,23,23,24,24,25,25,26,26,27,27,28,28,29,29,30,30,31,31,32,32,33,33,34,34,35,35,37,37,38,38,39,39,43,43,47,47,48,48,49,49,50,50,52,52,56,56,57,57,58,58,61,61,62,62,63,63,64,64,65,65,66,66,67,67,68,68,69,69,70,70,71,71,73,73,78,78,79,79,80,80,81,81,82,82,83,83,86,86,87,87,88,88,93,93,95,95,96,96,99,99,101,101,102,102,103,103,104,104,105,105,106,106,107,107,109,109,110,110,113,113,117,117,118,118,121,121,122,122,123,123,125,125,134,134,135,135,138,138,139,139,140,140,141,141,142,142,147,147,149,149,151,151,152,152,153,153,154,154,157,157,158,158,161,161,162,162,171,171,175,175,177,177,179,179,184,184,185,185,187,187,188,188,189,189,190,190,194,194,198,198,200,200,205,205,207,207,208,208,211,211],"right_children":[2,4,6,8,10,12,14,16,18,20,22,24,26,28,30,32,34,36,38,40,-1,42,44,46,48,50,52,54,56,58,60,62,64,66,68,70,-1,72,74,76,-1,-1,-1,78,-1,-1,-1,80,82,84,86,-1,88,-1,-1,-1,90,92,94,-1,-1,96,98,100,102,104,106,108,110,112,114,116,-1,118,-1,-1,-1,-1,120,122,124,126,128,130,-1,-1,132,134,136,-1,-1,-1,-1,138,-1,140,142,-1,-1,144,-1,146,148,150,152,154,156,158,-1,160,162,-1,-1,164,-1,-1,-1,166,168,-1,-1,170,172,174,-1,176,-1,-1,-1,-1,-1,-1,-1,-1,178,180,-1,-1,182,184,186,188,190,-1,-1,-1,-1,192,-1,194,-1,196,198,200,202,-1,-1,204,206,-1,-1,208,210,-1,-1,-1,-1,-1,-1,-1,-1,212,-1,-1,-1,214,-1,216,-1,218,-1,-1,-1,-1,220,222,-1,224,226,228,230,-1,-1,-1,232,-1,-1,-1,234,-1,236,-1,-1,-1,-1,238,-1,240,242,-1,-1,244,-1,-1,-1,-1,-1,-1,-1,-1,-1,-1,-1,-1,-1,-1,-1,-1,-1,-1,-1,-1,-1,-1,-1,-1,-1,-1,-1,-1,-1,-1,-1,-1,-1],"split_conditions":[9.014558E2,3.15E1,2.35E1,4.0468822E1,5.214521E2,2.7611671E1,2.45E1,8.5E0,5.620773E2,6.622149E1,3.25E1,3.3768559E0,3.223308E1,2.5542976E1,1.0261086E3,2.2964194E2,2.2884705E1,8.5E0,3.6825577E1,4.185855E2,6.8819076E-2,2.7504366E1,9.835815E0,4.7472772E2,1.1689523E2,1.9157394E1,1.5312339E1,4.009899E0,3.2458347E1,2.65E1,3.55E1,2.4191096E2,4.7389515E1,1.762558E1,5.9313214E2,3.5E0,5.2693147E-2,5.5E0,8.5E0,2.0257732E1,-2.3395803E-2,-3.6473967E-2,1.1720943E-1,1.9293327E1,1.171836E-1,-6.66901E-2,1.0685215E-1,2.6629007E2,2.2910175E1,1.1312819E3,3.701192E0,4.874582E-3,3.7435837E1,-5.000728E-2,-1.1149032E-1,4.7123615E-2,3.1087126E1,2.6995705E1,3.05E1,8.8719904E-2,1.17720954E-1,4.5E0,3.1781754E1,5.3819556E2,6.5854395E2,7.065464E2,5.355683E2,4.8015173E2,1.1730471E1,9.3816315E1,4.6721643E2,3.9396744E2,8.101601E-2,7.533053E2,1.1594209E-1,-1.2211127E-1,-7.586676E-2,2.2155188E-2,1.117706E2,1.8864744E1,4.5E0,1.0491165E3,2.05E1,8.2375965E0,4.0357757E-2,1.1756304E-1,1.876739E2,1.0414931E1,4.65E1,9.269278E-2,1.1705153E-1,-1.0274882E-1,1.02820195E-1,2.787881E1,1.1704305E-1,6.19586E2,2.380307E1,-8.69805E-2,5.8887627E-2,4.1505943E1,-6.4840047E-3,2.296757E1,4.2870693E1,4.343644E1,1.2998634E1,7.7326807E2,7.1708716E2,3.5E0,4.7373403E-2,7.596996E1,4.084825E0,-1.16917744E-1,-8.551656E-2,3.497879E2,-1.3053737E-2,-1.1171491E-1,-2.5364986E-2,2.463811E0,8.175595E0,7.803346E-2,1.2063256E-1,1.1649763E3,7.5E0,-1.1008177E0,-2.325647E-3,9.191588E1,-4.719379E-2,7.0435025E-2,-6.945553E-3,-8.95383E-2,-1.0314165E-2,-9.190655E-3,9.941391E-2,2.2281574E-2,2.5859676E1,4.5E0,1.16766E-1,-6.914411E-3,1.5E0,1.8117181E2,3.945489E1,7.420442E2,7.952763E2,-1.1698892E-1,-6.422224E-2,-1.0967087E-1,-3.5772845E-2,1.6930866E1,9.335274E-2,2.8794522E0,-8.177361E-2,1.3004176E2,3.7082772E0,7.5E0,2.9787575E1,-2.5812285E-2,6.0886543E-2,3.602455E0,5.95E1,-9.9027745E-2,-3.4832317E-2,7.539078E2,2.4707935E2,-1.1224476E-1,-7.007754E-2,6.2815784E-3,9.934787E-2,8.845502E-2,1.2072246E-1,-1.17961794E-1,-8.95742E-2,9.323511E0,-6.2346373E-2,-1.2056729E-1,-8.128251E-2,4.5E0,-6.5545745E-2,4.4195605E2,1.1429861E-1,1.3988366E1,4.7983415E-2,8.606591E-2,1.1544998E-1,-1.1742145E-1,8.354688E0,2.8956955E1,1.6087648E-3,2.75E1,3.4624012E0,1.9227046E2,2.5349688E1,-4.8456024E-2,3.2939438E-2,-8.0970824E-2,3.8037213E2,-1.1649532E-1,-8.69387E-2,-1.5257322E-2,2.3865944E1,-1.1222934E-1,3.484908E0,-7.38489E-2,2.9308475E-3,9.417006E-3,-7.304377E-2,3.481781E0,-5.1809464E-2,9.9491775E-1,2.8456268E1,-6.328067E-2,4.7915682E-2,-1.4717905E-1,-7.602927E-2,-8.52995E-2,-1.2224068E-1,3.1262405E-2,1.07208356E-1,8.6649105E-2,1.18057795E-1,-1.0983122E-1,-8.400788E-2,-1.15327634E-1,-8.610356E-2,-1.1399114E-1,-7.349485E-2,-3.1416632E-2,-1.02213606E-1,-1.0014777E-1,-3.685316E-2,-7.027086E-2,5.4934587E-2,-1.1424848E-1,-9.0888575E-2,-1.0081624E-1,-4.831553E-2,1.1226233E-2,-8.860898E-2,-8.51752E-2,-1.16435796E-1,8.3545916E-2,-1.1031084E-2,1.0836412E-1,6.300089E-2,-9.5158555E-2,-1.1790694E-1],"split_indices":[2,9,9,6,2,4,9,35,2,33,9,20,4,4,2,42,6,35,4,2,0,4,7,17,33,39,6,20,4,9,0,45,33,6,2,35,0,35,35,5,0,0,0,4,0,0,0,41,6,2,20,0,4,0,0,0,5,4,9,0,0,35,4,41,2,2,32,32,39,22,2,40,0,2,0,0,0,0,32,4,35,2,12,39,0,0,42,39,0,0,0,0,0,4,0,2,6,0,0,5,0,6,5,38,39,2,2,12,0,24,20,0,0,2,0,0,0,44,7,0,0,2,35,30,0,42,0,0,0,0,0,0,0,0,6,12,0,0,13,42,4,2,2,0,0,0,0,39,0,20,0,42,20,29,5,0,0,20,0,0,0,17,41,0,0,0,0,0,0,0,0,7,0,0,0,12,0,32,0,39,0,0,0,0,7,4,0,9,20,33,4,0,0,0,41,0,0,0,4,0,20,0,0,0,0,20,0,16,30,0,0,38,0,0,0,0,0,0,0,0,0,0,0,0,0,0,0,0,0,0,0,0,0,0,0,0,0,0,0,0,0,0,0,0,0],"split_type":[0,0,0,0,0,0,0,0,0,0,0,0,0,0,0,0,0,0,0,0,0,0,0,0,0,0,0,0,0,0,0,0,0,0,0,0,0,0,0,0,0,0,0,0,0,0,0,0,0,0,0,0,0,0,0,0,0,0,0,0,0,0,0,0,0,0,0,0,0,0,0,0,0,0,0,0,0,0,0,0,0,0,0,0,0,0,0,0,0,0,0,0,0,0,0,0,0,0,0,0,0,0,0,0,0,0,0,0,0,0,0,0,0,0,0,0,0,0,0,0,0,0,0,0,0,0,0,0,0,0,0,0,0,0,0,0,0,0,0,0,0,0,0,0,0,0,0,0,0,0,0,0,0,0,0,0,0,0,0,0,0,0,0,0,0,0,0,0,0,0,0,0,0,0,0,0,0,0,0,0,0,0,0,0,0,0,0,0,0,0,0,0,0,0,0,0,0,0,0,0,0,0,0,0,0,0,0,0,0,0,0,0,0,0,0,0,0,0,0,0,0,0,0,0,0,0,0,0,0,0,0,0,0,0,0,0,0,0,0,0,0,0,0,0,0],"sum_hessian":[1.17212266E5,4.1711797E4,7.550047E4,4.080387E4,9.0792645E2,2.7821216E3,7.271835E4,4.0013895E4,7.899779E2,8.6599205E1,8.213273E2,8.7637366E2,1.9057479E3,4.3611978E2,7.2282234E4,3.78855E4,2.1283938E3,4.177558E2,3.722221E2,6.655196E1,2.0047245E1,5.77071E1,7.636202E2,5.8572716E1,8.1780096E2,1.804821E2,1.7252659E3,5.374394E1,3.8237585E2,9.674481E2,7.131478E4,3.758923E4,2.9626645E2,1.6100519E3,5.183419E2,3.94108E2,2.3647808E1,8.67098E1,2.8551233E2,4.3071835E1,2.348013E1,2.0282755E1,3.7424347E1,1.6906891E2,5.945513E2,2.4232458E1,3.4340256E1,6.506725E2,1.6712846E2,8.5783585E1,9.4698524E1,2.108424E1,1.7041816E3,2.3816051E1,2.9927887E1,2.4401255E1,3.5797458E2,7.050023E1,8.9694794E2,2.0200556E1,7.129458E4,3.754683E4,4.240332E1,1.8882858E2,1.0743788E2,1.1726227E3,4.3742917E2,1.7285628E2,3.4548563E2,3.083944E2,8.5713585E1,5.1907482E1,3.4802315E1,1.2990944E2,1.5560287E2,2.2941263E1,2.0130571E1,2.014808E1,1.4892082E2,5.706689E2,8.000363E1,1.17537704E2,4.9590767E1,6.330355E1,2.2480032E1,4.8269512E1,4.6429016E1,1.928458E2,1.5113358E3,2.7332165E1,3.3064243E2,3.237652E1,3.8123707E1,8.107625E1,8.1587164E2,3.273071E4,4.816118E3,2.2347416E1,2.0055904E1,1.6871562E2,2.0112955E1,4.4431488E1,6.3006393E1,9.321489E2,2.4047372E2,3.9572412E2,4.1705032E1,1.495458E2,2.3310463E1,4.9093353E1,2.9639227E2,2.853752E2,2.3019209E1,6.509934E1,2.0614243E1,2.9232632E1,2.267485E1,6.0861046E1,6.904839E1,2.0330135E1,1.2859068E2,3.623854E2,2.0828348E2,5.6699863E1,2.3303766E1,7.886481E1,3.8672894E1,2.7433594E1,2.2157171E1,3.0889574E1,3.241398E1,2.632791E1,2.0101105E1,2.798177E1,1.6486403E2,8.995526E1,1.4213806E3,2.0575956E1,6.050029E1,2.8354719E4,4.3759917E3,4.1931475E3,6.2297076E2,1.4740553E2,2.1310095E1,2.4008059E1,2.0423428E1,4.1357773E1,2.164862E1,8.992356E2,3.291336E1,1.3916942E2,1.01304306E2,3.2698697E2,6.873716E1,2.1446728E1,2.0258303E1,4.6120552E1,1.0342526E2,2.7189425E1,2.1903929E1,2.4285872E2,5.3533554E1,4.070023E1,2.4399113E1,3.497745E1,2.5883595E1,2.6780457E1,4.2267937E1,3.377893E2,2.4596085E1,1.8469951E2,2.358397E1,2.6702545E1,2.9997318E1,5.8645603E1,2.0219202E1,4.1559055E1,1.2330498E2,6.805905E1,2.189621E1,2.3830381E1,3.6669907E1,2.8213512E4,1.4120651E2,4.337356E3,3.8635498E1,3.8002517E3,3.9289587E2,5.658531E2,5.7117702E1,2.0343351E1,2.101442E1,2.0327805E1,8.789078E2,1.0832979E2,3.0839634E1,3.0317451E1,7.0986855E1,1.5287326E2,1.7411371E2,3.7464962E1,3.1272194E1,2.022089E1,2.5899662E1,7.830137E1,2.512389E1,8.235494E1,1.6050378E2,3.0097466E1,2.3436087E1,1.5992511E2,2.4774399E1,2.2700445E1,3.594516E1,2.1029531E1,2.0529526E1,2.0227451E1,4.78316E1,1.1746739E2,2.3739122E1,4.1968403E3,1.4051566E2,3.774731E3,2.5520718E1,2.6447802E1,3.6644806E2,5.133671E2,5.248592E1,3.5119637E1,2.1998068E1,8.43792E2,3.51158E1,4.867353E1,2.2313324E1,2.0256657E1,1.5385706E2,2.0181604E1,5.8119766E1,2.3705013E1,5.864993E1,1.3730968E2,2.3194101E1,6.466918E1,9.525592E1],"tree_param":{"num_deleted":"0","num_feature":"47","num_nodes":"245","size_leaf_vector":"0"}},{"base_weights":[-2.3942861E-1,7.099504E-1,-7.654597E-1,7.414938E-1,-6.4720297E-1,-2.141533E-1,-7.8282815E-1,7.542483E-1,1.0730509E-1,6.0307586E-1,-7.47935E-1,5.285471E-1,-6.719834E-1,-6.257683E-1,-7.843871E-1,7.693601E-1,4.8626444E-1,6.620412E-1,-4.8948684E-1,7.9184014E-1,1.2544934E-1,-1.9248225E-1,-7.645007E-1,6.7094094E-1,1.2356968E-1,-1.3443007E-1,-7.2067285E-1,3.693946E-1,-7.4880886E-1,-7.3403007E-1,-7.848732E-1,7.704059E-1,1.1819614E-1,6.485608E-1,-4.9090635E-2,7.100034E-1,-2.4564873E-1,1.0482641E-1,-6.6017663E-1,-3.983475E-1,-7.74638E-1,1.23264275E-1,7.1398866E-1,5.714512E-1,-1.660634E-1,1.3496156E-1,-5.61933E-1,-5.134384E-1,-7.642313E-1,5.816705E-1,-2.5806102E-1,-4.7689104E-1,-7.757802E-1,1.17122464E-1,-7.7474535E-1,7.712039E-1,-1.53958555E-2,5.238386E-1,-3.88622E-1,7.035798E-1,4.484058E-1,4.080281E-1,-2.6657438E-1,7.627768E-1,5.140815E-1,4.706871E-1,-5.3497094E-1,-4.8817354E-1,-7.448163E-1,-6.1040014E-1,-7.7904594E-1,4.1251114E-1,-2.704838E-1,7.382599E-1,2.423024E-1,3.224274E-1,7.25034E-1,-6.5276307E-1,4.098331E-2,-2.6729748E-1,4.077779E-1,-3.854572E-1,-7.571261E-1,2.7711581E-2,-6.507921E-1,-5.6272626E-1,-7.6866555E-1,7.3795414E-1,2.8849238E-1,-8.7511934E-2,-7.25254E-1,-6.488306E-1,-7.8382516E-1,7.732725E-1,5.742904E-1,7.546014E-1,6.237408E-1,6.629697E-1,2.7717468E-1,5.141554E-1,-2.783227E-1,4.80337E-1,-3.8620088E-1,7.842424E-1,6.57046E-1,7.225357E-1,-5.291415E-2,6.987288E-1,1.1543142E-1,1.056741E-2,-6.3253844E-1,-5.5006E-1,-7.633159E-1,7.50031E-1,4.654825E-1,8.000108E-1,5.655596E-1,-4.5560223E-1,-8.198312E-1,3.8561007E-1,-2.3036388E-1,6.68652E-1,1.6839261E-1,3.459068E-1,-2.661678E-1,-2.2349097E-1,-7.128489E-1,-7.0720243E-1,-7.797451E-1,7.747766E-1,5.951714E-1,6.619205E-1,1.1098112E-1,6.955301E-1,7.735779E-1,6.891516E-1,3.652183E-1,4.12658E-1,7.1541077E-1,-4.8847738E-1,4.117372E-1,7.237707E-1,3.7280378E-1,6.3260096E-1,2.6295647E-1,-4.7844702E-1,9.798667E-2,7.577848E-1,5.379215E-1,8.07956E-1,6.159793E-1,-7.7810454E-1,-4.1619405E-1,-7.8405297E-1,-5.8623844E-1,4.8945135E-1,7.5907636E-1,6.4374703E-1,8.0731586E-2,9.851123E-2,-4.2918134E-1,-4.4048584E-1,-7.6699126E-1,-5.219986E-1,-7.544383E-1,7.7920896E-1,7.344596E-1,-9.978988E-3,6.4580965E-1,7.3548424E-1,4.7194022E-1,5.648118E-1,-3.6571836E-1,7.4887145E-1,5.5159193E-1,7.105562E-1,4.6813917E-1,6.281134E-3,5.15859E-1,5.530355E-1,7.8158295E-1,5.499592E-1,1.8108958E-2,8.0760473E-1,5.9125096E-1,-1.604654E-2,5.122519E-1,-1.551354E-1,-6.476337E-1,4.342637E-1,-2.2364163E-1,6.411186E-1,7.694801E-1,-5.933561E-1,-7.7996993E-1,7.8190225E-1,7.5780195E-1,7.539458E-1,3.1449735E-1,7.0140433E-1,3.903594E-1,7.62203E-1,5.7026845E-1,1.18661694E-1,5.983488E-1,6.7292416E-1,3.4013492E-1,7.269767E-1,4.0645555E-1,6.79857E-1,3.2491788E-1,2.0812763E-1,6.339153E-1,-3.182017E-1,3.071291E-1,6.580234E-1,2.6404512E-1,-4.5669505E-1,1.5752819E-1,-5.0886804E-1,-7.5409186E-1,4.357462E-1,7.708158E-1,7.789079E-1,6.25868E-1],"categories":[],"categories_nodes":[],"categories_segments":[],"categories_sizes":[],"default_left":[1,1,1,1,1,1,1,1,1,1,1,1,1,1,1,1,1,1,1,0,0,0,1,1,1,1,1,1,1,1,0,1,1,1,1,1,0,1,1,0,1,1,1,1,1,1,1,1,1,1,0,1,1,0,0,1,0,0,0,1,1,1,1,1,1,1,0,1,1,0,0,0,0,1,0,0,1,1,1,0,1,0,0,1,1,0,1,0,0,0,0,0,0,1,1,1,1,1,1,1,0,1,1,0,1,1,0,0,0,0,1,0,1,1,0,0,0,0,0,1,1,0,0,0,0,0,1,1,0,1,1,1,1,1,0,1,1,0,1,0,1,1,1,0,0,1,1,0,0,0,0,0,0,0,0,0,1,0,0,0,0,0,0,0,1,1,1,0,1,1,1,0,0,0,1,1,0,0,1,0,0,1,1,0,0,0,1,1,1,0,0,1,1,0,0,0,0,0,0,0,0,0,0,0,0,0,0,0,0,0,0,0,0,0,0,0,0,0,0,0,0,0,0,0,0],"id":5,"left_children":[1,3,5,7,9,11,13,15,17,19,21,23,25,27,29,31,33,35,37,-1,-1,-1,39,41,43,45,47,49,51,53,-1,55,57,59,61,63,-1,65,67,-1,69,71,73,75,77,79,81,83,85,87,-1,89,91,-1,-1,93,-1,-1,-1,95,97,99,101,103,105,107,-1,109,111,-1,-1,-1,-1,113,-1,-1,115,117,119,-1,121,-1,-1,123,125,-1,127,-1,-1,-1,-1,-1,-1,129,131,133,135,137,139,141,-1,143,145,-1,147,149,-1,-1,-1,-1,151,-1,153,155,-1,-1,-1,-1,-1,157,159,-1,-1,-1,-1,-1,161,163,-1,165,167,169,171,173,-1,175,177,-1,179,-1,181,183,185,-1,-1,187,189,-1,-1,-1,-1,-1,-1,-1,-1,-1,191,-1,-1,-1,-1,-1,-1,-1,193,195,197,-1,199,201,203,-1,-1,-1,205,207,-1,-1,209,-1,-1,211,213,-1,-1,-1,215,217,219,-1,-1,221,223,-1,-1,-1,-1,-1,-1,-1,-1,-1,-1,-1,-1,-1,-1,-1,-1,-1,-1,-1,-1,-1,-1,-1,-1,-1,-1,-1,-1,-1,-1,-1,-1],"loss_changes":[5.857423E4,1.7906484E3,7.225E2,3.3049023E2,1.2014603E2,7.8460706E2,1.7425781E1,1.6186719E2,2.6745108E2,6.339365E0,7.9498596E0,5.0670715E1,3.7259766E1,8.89314E1,1.1992188E0,2.5730469E1,1.8607669E2,1.8398026E1,3.9559044E1,0E0,0E0,0E0,2.8618774E0,1.5258759E1,2.995452E1,1.3869302E1,1.1419373E1,1.085066E1,4.358246E0,2.462799E1,0E0,2.375E1,1.2947057E1,1.7779907E1,4.9722622E1,3.721405E0,0E0,2.078509E1,4.0411377E0,0E0,1.2542725E-1,5.651739E0,6.727936E0,3.2321167E0,1.4191067E1,8.260519E0,1.3096714E0,1.7137081E1,5.317993E-1,2.5516758E0,0E0,5.8136415E0,8.883667E-2,0E0,0E0,1.4964844E1,0E0,0E0,0E0,4.772522E0,1.2934334E1,1.1891113E1,3.0454693E1,1.9136047E-1,1.037899E1,4.4835777E0,0E0,7.400078E0,3.0387115E-1,0E0,0E0,0E0,0E0,1.4915771E0,0E0,0E0,2.0817947E-1,1.0102367E0,9.398304E0,0E0,2.6761718E0,0E0,0E0,4.5416203E0,4.7126846E0,0E0,1.6577148E-1,0E0,0E0,0E0,0E0,0E0,0E0,9.564453E0,1.604863E1,3.3694458E-1,8.332153E0,1.7755737E0,2.083731E1,3.8793755E0,0E0,1.3963728E0,1.3113743E1,0E0,2.9691887E-1,8.521271E-2,0E0,0E0,0E0,0E0,2.1845455E0,0E0,2.0452881E-1,9.199829E-1,0E0,0E0,0E0,0E0,0E0,3.428825E0,3.7250695E0,0E0,0E0,0E0,0E0,0E0,2.021202E0,1.1074753E0,0E0,6.060547E0,9.742859E0,4.3170624E0,1.4130706E1,1.1201019E0,0E0,1.5784912E0,5.6540766E0,0E0,9.545517E-1,0E0,9.288343E0,1.3728333E-1,4.6552057E0,0E0,0E0,1.335075E1,5.250496E0,0E0,0E0,0E0,0E0,0E0,0E0,0E0,0E0,0E0,1.543274E-1,0E0,0E0,0E0,0E0,0E0,0E0,0E0,9.031677E-2,1.3339844E0,2.9984985E1,0E0,3.890274E0,6.194153E-1,4.213751E0,0E0,0E0,0E0,1.2537746E0,1.5340424E0,0E0,0E0,2.0865002E0,0E0,0E0,3.4970474E0,4.515387E0,0E0,0E0,0E0,2.1096134E0,8.160932E0,1.9964066E0,0E0,0E0,9.631138E-1,1.6238403E-1,0E0,0E0,0E0,0E0,0E0,0E0,0E0,0E0,0E0,0E0,0E0,0E0,0E0,0E0,0E0,0E0,0E0,0E0,0E0,0E0,0E0,0E0,0E0,0E0,0E0,0E0,0E0,0E0,0E0,0E0,0E0,0E0],"parents":[2147483647,0,0,1,1,2,2,3,3,4,4,5,5,6,6,7,7,8,8,9,9,10,10,11,11,12,12,13,13,14,14,15,15,16,16,17,17,18,18,22,22,23,23,24,24,25,25,26,26,27,27,28,28,29,29,31,31,32,32,33,33,34,34,35,35,37,37,38,38,40,40,41,41,42,42,43,43,44,44,45,45,46,46,47,47,48,48,49,49,51,51,52,52,55,55,59,59,60,60,61,61,62,62,63,63,64,64,65,65,67,67,68,68,73,73,76,76,77,77,78,78,80,80,83,83,84,84,86,86,93,93,94,94,95,95,96,96,97,97,98,98,99,99,101,101,102,102,104,104,105,105,110,110,112,112,113,113,119,119,120,120,126,126,127,127,129,129,130,130,131,131,132,132,133,133,135,135,136,136,138,138,140,140,141,141,142,142,145,145,146,146,156,156,164,164,165,165,166,166,168,168,169,169,170,170,174,174,175,175,178,178,181,181,182,182,186,186,187,187,188,188,191,191,192,192],"right_children":[2,4,6,8,10,12,14,16,18,20,22,24,26,28,30,32,34,36,38,-1,-1,-1,40,42,44,46,48,50,52,54,-1,56,58,60,62,64,-1,66,68,-1,70,72,74,76,78,80,82,84,86,88,-1,90,92,-1,-1,94,-1,-1,-1,96,98,100,102,104,106,108,-1,110,112,-1,-1,-1,-1,114,-1,-1,116,118,120,-1,122,-1,-1,124,126,-1,128,-1,-1,-1,-1,-1,-1,130,132,134,136,138,140,142,-1,144,146,-1,148,150,-1,-1,-1,-1,152,-1,154,156,-1,-1,-1,-1,-1,158,160,-1,-1,-1,-1,-1,162,164,-1,166,168,170,172,174,-1,176,178,-1,180,-1,182,184,186,-1,-1,188,190,-1,-1,-1,-1,-1,-1,-1,-1,-1,192,-1,-1,-1,-1,-1,-1,-1,194,196,198,-1,200,202,204,-1,-1,-1,206,208,-1,-1,210,-1,-1,212,214,-1,-1,-1,216,218,220,-1,-1,222,224,-1,-1,-1,-1,-1,-1,-1,-1,-1,-1,-1,-1,-1,-1,-1,-1,-1,-1,-1,-1,-1,-1,-1,-1,-1,-1,-1,-1,-1,-1,-1,-1],"split_conditions":[9.0850665E2,3.15E1,4.565012E0,4.021083E1,6.9991837E0,2.8394547E1,5.3107224E0,8.5E0,5.5805066E2,5.677521E2,3.8937955E0,2.3195686E1,2.0873917E1,2.3909332E1,2.45E1,9.945239E2,2.3167934E1,9.5E0,3.6825577E1,1.1877602E-1,1.8817402E-2,-2.8872339E-2,4.9497992E2,3.5046263E0,1.2422459E1,3.7436424E1,3.6162964E1,2.9582547E2,3.1640179E1,2.7723145E1,-1.1773098E-1,3.664709E2,2.2962109E1,1.8630396E1,5.9313214E2,4.2929675E2,-3.6847312E-2,5.5E0,7.3272644E2,-5.9752125E-2,4.4708157E0,4.0372382E2,1.15E1,1.85E1,3.6325042E0,3.7508624E0,5.179118E0,1.0962208E1,5.5E0,5.5295418E1,-3.8709156E-2,2.7700527E3,1.9174146E3,1.756837E-2,-1.1621181E-1,2.0304248E2,-2.3093785E-3,7.857579E-2,-5.82933E-2,1.3008387E1,1.9200121E3,3.35753E2,1.1731921E1,3.452746E2,4.2910698E1,4.205669E2,-8.0245644E-2,1.3356047E1,1.7260089E2,-9.156002E-2,-1.16856895E-1,6.1876673E-2,-4.057257E-2,7.1966296E2,3.6345363E-2,4.836411E-2,4.043952E0,1.103718E3,2.5052002E3,-4.009462E-2,5.293291E2,-5.781858E-2,-1.1356892E-1,1.05371E3,5.5E0,-8.440894E-2,4.169993E1,1.1069313E-1,4.327386E-2,-1.31267905E-2,-1.087881E-1,-9.7324595E-2,-1.17573775E-1,1.5135522E2,4.2700806E1,-5.4318204E0,7.307185E2,-2.2358418E1,3.5544782E0,1.8265873E1,-4.1748405E-2,3.3631836E1,4.1236076E0,1.1763636E-1,1.4275038E2,2.8716303E1,-7.937123E-3,1.0480932E-1,1.7314713E-2,1.5851116E-3,8.5E0,-8.2508996E-2,1.4440624E1,9.829381E1,6.982238E-2,1.2000162E-1,8.483395E-2,-6.834034E-2,-1.2297469E-1,3.5718937E0,2.2957336E1,1.002978E-1,2.5258893E-2,5.1886022E-2,-3.992517E-2,-3.3523645E-2,4.620467E1,2.250622E3,-1.1696177E-1,6.7233295E2,3.3521628E0,4.8129364E1,6.684365E2,2.2545955E3,1.1603669E-1,2.15E1,3.7152395E0,6.1898705E-2,9.753132E0,-7.327161E-2,2.6302399E1,4.8647272E2,3.451657E0,9.489015E-2,3.944347E-2,7.594613E2,1.3211061E2,1.1366772E-1,8.068822E-2,1.211934E-1,9.23969E-2,-1.16715685E-1,-6.242911E-2,-1.1760795E-1,-8.793577E-2,7.341771E-2,2.710111E0,9.656206E-2,1.2109739E-2,1.4776684E-2,-6.43772E-2,-6.607288E-2,-1.1504869E-1,-7.829979E-2,1.35E1,4.5E0,2.8891514E1,-1.4968483E-3,2.550786E1,7.721982E2,3.8911085E0,8.4721774E-2,-5.4857757E-2,1.1233072E-1,1.3980856E1,1.2574788E3,7.022088E-2,9.4217015E-4,2.101327E1,8.295533E-2,1.1723745E-1,-1.3219191E1,9.9826586E-1,1.2114071E-1,8.868764E-2,-2.4069813E-3,1.8561722E2,9.9846005E-1,2.8332977E1,6.513956E-2,-3.3546247E-2,4.143798E0,9.6257214E2,-8.9003414E-2,-1.1699549E-1,1.1728534E-1,1.136703E-1,1.1309188E-1,4.7174606E-2,1.05210654E-1,5.855391E-2,1.1433045E-1,8.554027E-2,1.7799255E-2,8.9752324E-2,1.00938626E-1,5.102024E-2,1.0904651E-1,6.0968336E-2,1.01978555E-1,4.8737686E-2,3.1219145E-2,9.50873E-2,-4.7730256E-2,4.606937E-2,9.870352E-2,3.960677E-2,-6.850426E-2,2.362923E-2,-7.633021E-2,-1.1311378E-1,6.536193E-2,1.1562237E-1,1.1683619E-1,9.388021E-2],"split_indices":[2,9,8,6,10,4,8,35,2,2,8,4,6,4,9,40,6,35,4,0,0,0,2,20,39,4,4,3,4,4,0,10,6,6,2,2,0,35,2,0,8,17,35,14,20,20,38,39,14,33,0,1,1,0,0,42,0,0,0,39,1,33,39,2,4,40,0,39,40,0,0,0,0,40,0,0,20,2,1,0,26,0,0,2,35,0,4,0,0,0,0,0,0,34,5,36,2,30,20,39,0,4,20,0,40,24,0,0,0,0,31,0,18,23,0,0,0,0,0,30,6,0,0,0,0,0,24,1,0,2,20,33,2,1,0,9,20,0,42,0,4,2,20,0,0,17,42,0,0,0,0,0,0,0,0,0,8,0,0,0,0,0,0,0,14,35,4,0,6,2,20,0,0,0,6,17,0,0,4,0,0,18,16,0,0,0,3,16,6,0,0,20,17,0,0,0,0,0,0,0,0,0,0,0,0,0,0,0,0,0,0,0,0,0,0,0,0,0,0,0,0,0,0,0,0],"split_type":[0,0,0,0,0,0,0,0,0,0,0,0,0,0,0,0,0,0,0,0,0,0,0,0,0,0,0,0,0,0,0,0,0,0,0,0,0,0,0,0,0,0,0,0,0,0,0,0,0,0,0,0,0,0,0,0,0,0,0,0,0,0,0,0,0,0,0,0,0,0,0,0,0,0,0,0,0,0,0,0,0,0,0,0,0,0,0,0,0,0,0,0,0,0,0,0,0,0,0,0,0,0,0,0,0,0,0,0,0,0,0,0,0,0,0,0,0,0,0,0,0,0,0,0,0,0,0,0,0,0,0,0,0,0,0,0,0,0,0,0,0,0,0,0,0,0,0,0,0,0,0,0,0,0,0,0,0,0,0,0,0,0,0,0,0,0,0,0,0,0,0,0,0,0,0,0,0,0,0,0,0,0,0,0,0,0,0,0,0,0,0,0,0,0,0,0,0,0,0,0,0,0,0,0,0,0,0,0,0,0,0,0,0,0,0,0,0,0,0,0,0,0,0,0,0],"sum_hessian":[1.1728645E5,4.1816266E4,7.547019E4,4.0866875E4,9.4938873E2,2.3054155E3,7.316477E4,4.0060996E4,8.058791E2,7.041508E1,8.7897363E2,8.791262E2,1.4262892E3,7.2303534E2,7.2441734E4,3.7920746E4,2.1402483E3,4.1759894E2,3.8828012E2,4.999753E1,2.0417543E1,2.5820572E1,8.531531E2,6.4994336E2,2.2918286E2,1.18770584E2,1.3075187E3,7.933827E1,6.436971E2,7.070465E2,7.173469E4,3.785976E4,6.098585E1,1.6421948E3,4.980535E2,3.9684738E2,2.0751572E1,8.672034E1,3.0155978E2,2.4069557E1,8.2908356E2,4.7644676E1,6.022987E2,8.962144E1,1.3956142E2,7.327839E1,4.5492195E1,2.2931468E2,1.078204E3,5.9336853E1,2.0001417E1,5.9772106E1,5.83925E2,3.2192184E1,6.748543E2,3.7821375E4,3.838767E1,3.3855396E1,2.7130455E1,1.2861427E3,3.5605215E2,1.6028403E2,3.3776947E2,3.1035663E2,8.649073E1,5.533944E1,3.1380896E1,1.01685036E2,1.9987476E2,2.5315456E1,8.0376807E2,2.7439789E1,2.0204887E1,5.7228577E2,3.001292E1,3.537031E1,5.4251125E1,4.1009247E1,9.855217E1,2.9621965E1,4.365642E1,2.5453875E1,2.0038319E1,4.6583176E1,1.827315E2,2.5969522E1,1.0522344E3,3.7715096E1,2.1621758E1,2.3804375E1,3.596773E1,3.9664597E1,5.442604E2,3.7425277E4,3.9609705E2,7.795283E2,5.0661435E2,1.5675545E2,1.9929672E2,1.3903636E2,2.124767E1,4.6213177E1,2.915563E2,2.5264662E2,5.7710022E1,6.303996E1,2.3450771E1,3.3115486E1,2.2223953E1,2.303438E1,7.865066E1,2.000495E1,1.7986981E2,5.469345E2,2.5351274E1,3.416971E1,2.0081415E1,2.052008E1,2.0489166E1,4.3228436E1,5.5323734E1,2.0032484E1,2.362394E1,2.2281282E1,2.4301893E1,2.3756191E1,1.5897531E2,1.7061058E2,8.8162384E2,3.7108547E4,3.1672873E2,3.32735E2,6.3362057E1,1.9868907E2,5.8083923E2,4.0298596E2,1.03628395E2,2.8688494E1,1.2806696E2,2.9397385E1,1.6989934E2,5.433729E1,8.4699066E1,2.6053751E1,2.0159428E1,2.4490878E2,4.664753E1,2.8363163E1,2.9346857E1,3.133668E1,3.170328E1,4.5463913E1,3.3186745E1,1.5794551E2,2.19243E1,2.0197388E1,5.267371E2,2.280675E1,2.0421688E1,2.1034277E1,3.428946E1,2.78768E1,1.3109851E2,3.7120064E1,1.3349051E2,3.3416484E4,3.692063E3,2.4518963E1,2.9220978E2,2.377879E2,9.4947075E1,3.2364933E1,3.0997124E1,1.4190025E2,5.6788822E1,3.653842E2,3.7601765E1,3.0942425E1,7.268597E1,3.9789013E1,8.827794E1,1.2545044E2,4.4448895E1,3.0162064E1,2.4175228E1,2.2590506E1,6.2108562E1,8.479139E1,1.6011739E2,2.2633242E1,2.4014288E1,4.776798E1,4.7896912E2,2.157993E1,1.1191058E2,2.965051E4,3.7659758E3,3.5275876E3,1.6447536E2,2.3854788E2,5.366189E1,2.015757E2,3.6212204E1,2.5531635E1,6.941544E1,3.4697426E1,2.2091398E1,3.45346E2,2.0038181E1,3.7724285E1,3.4961685E1,2.5422092E1,1.0002834E2,2.0497063E1,2.395183E1,3.808827E1,2.4020292E1,4.2927628E1,4.1863758E1,7.2020485E1,8.809691E1,2.017735E1,2.759063E1,4.453118E2,3.3657307E1],"tree_param":{"num_deleted":"0","num_feature":"47","num_nodes":"225","size_leaf_vector":"0"}},{"base_weights":[2.2032575E-1,-6.552119E-1,7.055448E-1,-6.842565E-1,5.3216946E-1,2.596247E-1,7.2329795E-1,-6.990178E-1,-2.448978E-1,-5.581237E-1,6.6413623E-1,-4.9929368E-1,6.2826496E-1,5.960132E-1,7.245747E-1,-7.1263164E-1,-5.1379913E-1,-5.837428E-1,3.364355E-1,-7.1403646E-1,-2.7477788E-2,-1.8577743E-1,6.858317E-1,-5.913464E-1,1.0780183E-1,1.4830047E-1,6.701019E-1,-5.118358E-1,6.9468224E-1,6.6058457E-1,7.2510314E-1,-7.1312755E-1,-3.5413384E-2,-6.2110484E-1,-1.08206265E-1,-6.4756095E-1,3.1770194E-1,-3.019267E-1,5.3905445E-1,5.0475943E-1,7.209521E-1,-6.5945673E-1,-2.7673954E-1,-4.9642834E-1,4.3896833E-1,-1.1203298E-1,5.522118E-1,3.8116992E-1,6.964166E-1,-7.26039E-1,-1.2865932E-1,2.8071213E-1,7.1111387E-1,-2.9388523E-1,7.097282E-1,-7.1360624E-1,-1.5829556E-1,-6.806658E-1,-5.11955E-1,-4.1615993E-1,1.0537704E-1,-6.968476E-1,-3.993759E-1,-9.282998E-2,5.8354115E-1,-5.2758324E-1,3.6582112E-1,1.090919E-1,6.3931024E-1,-3.582622E-1,6.8171704E-1,-3.4808183E-1,-6.8091625E-1,-5.426145E-1,-6.160077E-2,-3.1866753E-1,-6.50493E-1,6.216223E-1,-5.165345E-2,-4.4492945E-1,1.5282264E-1,3.253848E-1,6.888538E-1,-2.566824E-1,4.9790165E-1,5.480733E-1,7.1194386E-1,5.901997E-1,7.224479E-1,5.2438706E-1,7.2106755E-1,-7.1842074E-1,-6.6523474E-1,-6.876601E-1,-2.6739177E-1,-6.556233E-1,-3.7993857E-1,-5.022779E-1,2.5792006E-1,-3.8290787E-1,1.9858691E-1,-7.0514977E-1,-4.9027967E-1,-5.26335E-1,-4.499227E-2,-6.511991E-1,-2.0408082E-1,-3.3050516E-1,4.9413764E-1,4.3796694E-1,7.0361227E-1,3.5266885E-1,7.5056E-1,-6.1635856E-2,-6.2935287E-1,-6.9407815E-1,-3.5179165E-1,-7.108933E-1,-3.387797E-1,-3.3439147E-1,5.40991E-1,8.056399E-1,4.1897646E-1,-2.0012674E-1,4.883262E-1,5.9873883E-2,5.951755E-1,2.5075245E-1,6.7372745E-1,6.445734E-1,7.1985084E-1,3.7616083E-1,7.289088E-1,-7.213208E-1,-6.937472E-1,-6.888609E-1,-2.0571306E-1,-6.9639957E-1,-4.9916658E-1,-3.6498362E-1,-6.7615384E-1,2.0133746E-1,-4.6005812E-1,-1.2694044E-1,-6.0062593E-1,-5.640528E-1,-1.4821556E-1,3.2584882E-1,-2.026438E-1,-7.1295756E-1,-5.1399624E-1,-6.824768E-1,-3.9506862E-1,-7.184948E-1,-5.148206E-1,1.3442412E-2,6.068225E-1,5.4951495E-1,7.2455406E-1,-7.062779E-1,-5.4098374E-1,-5.447155E-1,-6.4008854E-2,6.864151E-1,3.580012E-1,1.8900303E-2,5.205124E-1,3.9283434E-1,7.378031E-1,3.105264E-1,6.964285E-1,-7.2148585E-1,-4.9347934E-1,-7.0238495E-1,-6.047463E-1,-7.017841E-1,-5.664794E-1,-3.3653378E-1,3.964895E-1,-7.009097E-1,-5.1382786E-1,-6.122375E-1,-2.838961E-1,-6.897365E-1,-4.642835E-1,-2.934232E-1,7.3072594E-1,-4.9900368E-1,-2.541364E-2,-4.44307E-1,1.9603196E-1,-2.7074495E-1,-6.5568745E-1,-4.0068533E-3,5.37118E-1,-4.6861142E-1,2.4838951E-1,-7.2060907E-1,-6.0562134E-1,-1.7987737E-1,-5.70895E-1,4.1599834E-1,7.5462234E-1,-5.356273E-1,-7.1434593E-1,-3.9098918E-1,-6.860428E-1,5.5838203E-1,7.4127537E-1,7.369714E-1,5.300017E-1,-7.2162527E-1,-5.476334E-1,-5.824161E-1,-7.050535E-1,-6.5421516E-1,-3.7187973E-1,-7.0944744E-1,-6.280233E-1,-1.2572639E-1,-5.99393E-1,-4.471136E-1,2.3645392E-1,-4.8015782E-1,-7.0438576E-1,-7.022534E-1,-4.978316E-1,-5.514103E-1,-1.6159984E-1,-7.0127195E-1,-3.9330393E-1,-1.8822227E-1,4.2830274E-1,3.6306068E-1,5.997711E-1,-7.006721E-1,-4.7376844E-1,-7.2059596E-1,-5.78187E-1],"categories":[],"categories_nodes":[],"categories_segments":[],"categories_sizes":[],"default_left":[1,1,1,1,1,1,1,1,1,1,1,1,1,1,1,1,1,1,1,0,0,0,1,1,1,1,1,1,1,1,0,1,0,1,1,1,1,1,1,1,0,1,1,1,1,1,1,1,1,0,0,0,1,0,1,1,0,1,1,1,1,1,1,0,0,1,0,1,1,0,1,1,1,1,1,0,0,1,0,0,1,0,0,0,1,1,1,1,0,0,0,1,1,1,0,1,1,1,0,1,1,1,0,1,0,1,0,0,0,1,1,0,0,0,0,1,0,0,0,1,0,0,0,0,0,0,1,1,1,1,0,0,0,1,1,1,1,1,1,0,1,1,1,1,1,0,0,1,1,1,0,0,1,0,0,0,1,0,0,1,1,0,0,1,0,0,0,0,0,0,1,1,0,1,1,1,1,1,0,1,0,0,0,1,0,0,0,1,0,0,0,0,1,1,1,0,0,0,1,0,0,0,0,0,1,0,0,0,0,0,0,0,0,0,0,0,0,0,0,0,0,0,0,0,0,0,0,0,0,0,0,0,0,0,0,0,0,0,0],"id":6,"left_children":[1,3,5,7,9,11,13,15,17,19,21,23,25,27,29,31,33,35,37,-1,-1,-1,39,41,43,45,47,49,51,53,-1,55,-1,57,59,61,63,65,67,69,-1,71,73,75,77,79,81,83,85,-1,-1,-1,87,-1,89,91,-1,93,95,97,99,101,103,-1,-1,105,-1,107,109,-1,111,113,115,117,119,-1,-1,121,-1,-1,123,-1,-1,-1,125,127,129,131,-1,-1,-1,133,135,137,-1,139,141,143,-1,145,147,149,-1,151,-1,153,-1,-1,-1,155,157,-1,-1,-1,-1,159,-1,-1,-1,161,-1,-1,-1,-1,-1,-1,163,165,167,169,-1,-1,-1,171,173,175,177,179,181,-1,183,185,187,189,191,-1,-1,193,195,197,-1,-1,199,-1,-1,-1,201,-1,-1,203,205,-1,-1,207,-1,-1,-1,-1,-1,-1,209,211,-1,213,215,217,219,221,-1,223,-1,-1,-1,225,-1,-1,-1,227,-1,-1,-1,-1,229,231,233,-1,-1,-1,235,-1,-1,-1,-1,-1,237,-1,-1,-1,-1,-1,-1,-1,-1,-1,-1,-1,-1,-1,-1,-1,-1,-1,-1,-1,-1,-1,-1,-1,-1,-1,-1,-1,-1,-1,-1,-1,-1,-1,-1],"loss_changes":[4.626959E4,1.3397207E3,5.545703E2,2.4569531E2,1.3387378E2,7.51398E2,1.05234375E1,9.211719E1,2.4323477E2,8.313742E0,1.5397736E1,4.9145905E1,3.619348E1,7.413045E1,1.7773438E0,1.1447266E1,1.09383606E2,4.5068787E1,5.9010643E1,0E0,0E0,0E0,4.772705E0,1.6162567E1,2.3526257E1,1.5434738E1,1.237262E1,4.484064E0,4.0187073E0,2.6369553E1,0E0,8.953125E0,0E0,1.2578735E1,3.4729378E1,8.634155E0,5.7542944E0,1.6806839E1,1.4832642E1,2.0792683E1,0E0,3.947998E0,7.8300505E0,9.349737E-1,6.822541E0,7.9794755E0,1.5569897E0,1.0623245E1,3.1160278E0,0E0,0E0,0E0,3.9013672E-1,0E0,7.3724365E-1,7.4648438E0,0E0,3.52594E0,1.3141968E1,1.2677975E1,1.4284353E1,6.944885E-1,5.513174E0,0E0,0E0,3.1790104E0,0E0,1.1432058E1,3.3187332E0,0E0,2.2724304E0,3.3795624E0,2.2895203E0,1.8638268E0,1.28571615E1,0E0,0E0,1.7243938E0,0E0,0E0,6.1033506E0,0E0,0E0,0E0,5.0557957E0,5.382004E0,2.6831055E-1,1.4040089E0,0E0,0E0,0E0,1.71875E0,3.3526123E1,1.7304077E0,0E0,1.7624359E0,1.7338821E1,7.0117607E0,0E0,2.0583143E0,1.3484934E1,5.0042725E-1,0E0,1.5854855E0,0E0,1.7585373E-1,0E0,0E0,0E0,5.042571E0,2.8173065E-1,0E0,0E0,0E0,0E0,6.6638184E-1,0E0,0E0,0E0,3.0190582E0,0E0,0E0,0E0,0E0,0E0,0E0,1.8677483E0,2.850457E0,1.5792809E0,2.4505386E0,0E0,0E0,0E0,6.8652344E-1,2.102539E0,4.2664795E0,1.2192407E1,6.304321E-1,1.2726517E0,0E0,5.814514E-1,1.2146099E1,5.5016327E0,4.3034477E0,2.5811996E0,0E0,0E0,1.3932875E1,7.7817516E0,1.9805908E-2,0E0,0E0,1.8476362E0,0E0,0E0,0E0,1.1071568E0,0E0,0E0,3.2873535E-1,7.262325E-1,0E0,0E0,7.3848724E-2,0E0,0E0,0E0,0E0,0E0,0E0,5.031891E-1,2.783203E-1,0E0,5.4663086E-1,3.189804E0,1.0598145E0,4.0859528E0,8.107768E0,0E0,5.605469E-1,0E0,0E0,0E0,3.5273743E-1,0E0,0E0,0E0,5.1964264E0,0E0,0E0,0E0,0E0,1.2725258E0,6.3751206E0,1.1111755E0,0E0,0E0,0E0,2.0980453E-1,0E0,0E0,0E0,0E0,0E0,6.5612793E-4,0E0,0E0,0E0,0E0,0E0,0E0,0E0,0E0,0E0,0E0,0E0,0E0,0E0,0E0,0E0,0E0,0E0,0E0,0E0,0E0,0E0,0E0,0E0,0E0,0E0,0E0,0E0,0E0,0E0,0E0,0E0,0E0,0E0,0E0],"parents":[2147483647,0,0,1,1,2,2,3,3,4,4,5,5,6,6,7,7,8,8,9,9,10,10,11,11,12,12,13,13,14,14,15,15,16,16,17,17,18,18,22,22,23,23,24,24,25,25,26,26,27,27,28,28,29,29,31,31,33,33,34,34,35,35,36,36,37,37,38,38,39,39,41,41,42,42,43,43,44,44,45,45,46,46,47,47,48,48,52,52,54,54,55,55,57,57,58,58,59,59,60,60,61,61,62,62,65,65,67,67,68,68,70,70,71,71,72,72,73,73,74,74,77,77,80,80,84,84,85,85,86,86,87,87,91,91,92,92,93,93,95,95,96,96,97,97,99,99,100,100,101,101,103,103,105,105,109,109,110,110,115,115,119,119,126,126,127,127,128,128,129,129,133,133,134,134,135,135,136,136,137,137,138,138,140,140,141,141,142,142,143,143,144,144,147,147,148,148,149,149,152,152,156,156,159,159,160,160,163,163,170,170,171,171,173,173,174,174,175,175,176,176,177,177,179,179,183,183,187,187,192,192,193,193,194,194,198,198,204,204],"right_children":[2,4,6,8,10,12,14,16,18,20,22,24,26,28,30,32,34,36,38,-1,-1,-1,40,42,44,46,48,50,52,54,-1,56,-1,58,60,62,64,66,68,70,-1,72,74,76,78,80,82,84,86,-1,-1,-1,88,-1,90,92,-1,94,96,98,100,102,104,-1,-1,106,-1,108,110,-1,112,114,116,118,120,-1,-1,122,-1,-1,124,-1,-1,-1,126,128,130,132,-1,-1,-1,134,136,138,-1,140,142,144,-1,146,148,150,-1,152,-1,154,-1,-1,-1,156,158,-1,-1,-1,-1,160,-1,-1,-1,162,-1,-1,-1,-1,-1,-1,164,166,168,170,-1,-1,-1,172,174,176,178,180,182,-1,184,186,188,190,192,-1,-1,194,196,198,-1,-1,200,-1,-1,-1,202,-1,-1,204,206,-1,-1,208,-1,-1,-1,-1,-1,-1,210,212,-1,214,216,218,220,222,-1,224,-1,-1,-1,226,-1,-1,-1,228,-1,-1,-1,-1,230,232,234,-1,-1,-1,236,-1,-1,-1,-1,-1,238,-1,-1,-1,-1,-1,-1,-1,-1,-1,-1,-1,-1,-1,-1,-1,-1,-1,-1,-1,-1,-1,-1,-1,-1,-1,-1,-1,-1,-1,-1,-1,-1,-1,-1],"split_conditions":[9.014558E2,3.05E1,1.2073737E2,3.5028984E1,6.9991837E0,2.7635983E1,2.2598552E2,7.5E0,6.177296E2,6.116449E2,3.9687238E2,3.266737E2,2.0873917E1,2.3818905E1,2.45E1,6.8537915E2,2.2877998E1,9.5E0,3.1597973E1,-1.0710547E-1,-4.121668E-3,-2.7866615E-2,1.2156473E2,2.3645222E1,1.4227806E1,3.7392952E1,3.214613E1,1.17325775E2,2.7757088E1,2.5542976E1,1.08765475E-1,3.664709E2,-5.312008E-3,1.5687633E1,6.061946E2,4.5E0,6.862468E2,7.5E0,1.0641832E1,1.7778831E1,1.08142816E-1,3.49015E0,1.1002363E1,6.25E1,3.984199E0,1.01090796E3,-1.3322676E-15,7.981825E0,1.0345821E1,-1.0890585E-1,-1.92989E-2,4.2106822E-2,3.510887E1,-4.4082787E-2,1.109334E3,6.860488E2,-2.3744335E-2,5.1602936E2,5.649591E2,4.654445E2,1.1730471E1,9.049107E0,4.7811577E1,-1.3924497E-2,8.753118E-2,2.5820413E3,5.4873172E-2,4.2677925E1,6.5E0,-5.3739335E-2,1.03728836E2,8.513617E0,3.4135962E2,2.214349E1,7.05E1,-4.780013E-2,-9.757396E-2,3.5474749E0,-7.7480176E-3,-6.673942E-2,7.5E0,4.880772E-2,1.0332807E-1,-3.850236E-2,2.153954E3,1.047297E3,6.5E0,9.832413E1,1.0836718E-1,7.865806E-2,1.0816014E-1,4.5E0,2.9815693E1,8.3681946E2,-4.0108766E-2,1.5E0,3.4865108E0,3.4257827E0,3.868801E-2,6.15E1,4.0708084E0,6.781292E2,-7.3541954E-2,3.8842615E2,-6.748841E-3,1.2010503E1,-3.0612124E-2,-4.9575776E-2,7.412065E-2,3.7465446E1,2.1557E1,5.290033E-2,1.12584E-1,-9.245379E-3,-9.440293E-2,2.4063635E2,-5.276875E-2,-1.06634E-1,-5.0816957E-2,1.4744666E2,8.1148654E-2,1.20845996E-1,6.2846474E-2,-3.0019011E-2,7.324893E-2,8.981083E-3,3.9831347E0,2.4835742E0,4.2178722E1,4.5691946E2,1.0797763E-1,5.6424126E-2,1.09336324E-1,5.311024E2,2.4522541E1,2.3588808E1,6.05E1,4.3131805E1,1.6795242E1,-5.4747544E-2,1.1822515E3,1.9202081E2,3.49635E2,1.7906618E2,-3.254516E1,-8.460793E-2,-2.2232335E-2,7.5275867E2,2.6924554E2,2.3457394E0,-7.709944E-2,-1.0237153E-1,3.8545542E0,-1.0777422E-1,-7.722309E-2,2.0163618E-3,8.148893E0,8.242725E-2,1.0868312E-1,-5.3223633E1,2.3438497E0,-8.170733E-2,-9.6013285E-3,-1.4921288E1,5.3700183E-2,2.8350456E-3,7.807686E-2,5.892515E-2,1.1067047E-1,4.6578962E-2,2.2E1,5.05E1,-7.4021906E-2,2.9374838E0,6.105619E2,5.5E0,3.3283863E0,4.654611E1,5.947343E-2,-4.1503136E1,-7.7074185E-2,-9.183563E-2,-4.2584416E-2,7.05E1,-6.964253E-2,-4.401348E-2,1.09608896E-1,3.9067463E1,-3.812046E-3,-6.6646054E-2,2.9404795E-2,-4.0611744E-2,3.107246E1,2.1190897E2,1.6038828E2,-7.029171E-2,3.7258428E-2,-1.0809136E-1,2.012266E2,-2.6981607E-2,-8.5634254E-2,6.2399752E-2,1.13193356E-1,-8.0344096E-2,7.5E0,-5.864838E-2,-1.0290642E-1,8.375731E-2,1.1119131E-1,1.1054571E-1,7.950026E-2,-1.0824379E-1,-8.214501E-2,-8.736242E-2,-1.0575803E-1,-9.8132275E-2,-5.578196E-2,-1.0641712E-1,-9.42035E-2,-1.8858958E-2,-8.990896E-2,-6.706704E-2,3.546809E-2,-7.2023675E-2,-1.0565787E-1,-1.05338015E-1,-7.467475E-2,-8.271155E-2,-2.4239978E-2,-1.051908E-1,-5.8995593E-2,-2.8233342E-2,6.424541E-2,5.4459106E-2,8.9965664E-2,-1.0510082E-1,-7.106527E-2,-1.08089395E-1,-8.672805E-2],"split_indices":[2,9,10,6,10,4,10,35,2,2,2,32,6,4,9,41,6,35,4,0,0,0,10,4,39,4,4,32,4,4,0,10,0,39,2,35,17,35,39,4,0,20,39,0,20,2,22,39,39,0,0,0,4,0,2,2,0,41,2,32,39,7,6,0,0,1,0,4,35,0,32,7,41,6,0,0,0,20,0,0,29,0,0,0,1,2,35,24,0,0,0,35,4,2,0,12,20,20,0,0,20,17,0,2,0,39,0,0,0,4,39,0,0,0,0,32,0,0,0,32,0,0,0,0,0,0,20,44,4,40,0,0,0,41,6,4,0,38,6,0,17,3,41,32,37,0,0,17,41,18,0,0,20,0,0,0,7,0,0,37,44,0,0,22,0,0,0,0,0,0,12,14,0,20,2,35,20,4,0,37,0,0,0,0,0,0,0,10,0,0,0,0,37,3,3,0,0,0,17,0,0,0,0,0,35,0,0,0,0,0,0,0,0,0,0,0,0,0,0,0,0,0,0,0,0,0,0,0,0,0,0,0,0,0,0,0,0,0,0],"split_type":[0,0,0,0,0,0,0,0,0,0,0,0,0,0,0,0,0,0,0,0,0,0,0,0,0,0,0,0,0,0,0,0,0,0,0,0,0,0,0,0,0,0,0,0,0,0,0,0,0,0,0,0,0,0,0,0,0,0,0,0,0,0,0,0,0,0,0,0,0,0,0,0,0,0,0,0,0,0,0,0,0,0,0,0,0,0,0,0,0,0,0,0,0,0,0,0,0,0,0,0,0,0,0,0,0,0,0,0,0,0,0,0,0,0,0,0,0,0,0,0,0,0,0,0,0,0,0,0,0,0,0,0,0,0,0,0,0,0,0,0,0,0,0,0,0,0,0,0,0,0,0,0,0,0,0,0,0,0,0,0,0,0,0,0,0,0,0,0,0,0,0,0,0,0,0,0,0,0,0,0,0,0,0,0,0,0,0,0,0,0,0,0,0,0,0,0,0,0,0,0,0,0,0,0,0,0,0,0,0,0,0,0,0,0,0,0,0,0,0,0,0,0,0,0,0,0,0,0,0,0,0,0,0,0,0,0,0,0,0],"sum_hessian":[1.0891171E5,3.883565E4,7.007606E4,3.7908785E4,9.2686255E2,2.6836694E3,6.73924E4,3.6675973E4,1.2328108E3,9.972418E1,8.2713837E2,8.772741E2,1.8063953E3,6.7391187E2,6.6718484E4,3.416216E4,2.513813E3,7.7883984E2,4.5397095E2,7.6810394E1,2.2913792E1,2.0400324E1,8.0673804E2,7.617911E2,1.1548299E2,1.4519719E2,1.6611981E3,5.4770077E1,6.191418E2,5.56731E2,6.616175E4,3.413711E4,2.5050303E1,1.9874672E3,5.263459E2,7.2761005E2,5.1229794E1,1.0925785E2,3.4471307E2,1.335514E2,6.7318665E2,6.2531775E2,1.3647333E2,4.070876E1,7.477423E1,8.873034E1,5.6466843E1,1.3995862E2,1.5212395E3,3.4557156E1,2.021292E1,2.4327658E1,5.9481415E2,2.7017397E1,5.297136E2,3.41074E4,2.9712866E1,1.2824321E3,7.0503503E2,2.1516425E2,3.111816E2,6.055476E2,1.22062485E2,2.0391022E1,3.0838774E1,8.181834E1,2.7439516E1,6.557457E1,2.7913852E2,2.2550089E1,1.1100131E2,4.1427673E1,5.838901E2,6.0358414E1,7.6114914E1,2.0325485E1,2.0383272E1,5.429405E1,2.0480186E1,3.9013924E1,4.9716415E1,2.2499214E1,3.396763E1,2.1465683E1,1.1849294E2,1.4758122E2,1.3736583E3,5.552561E1,5.392885E2,3.3263763E1,4.9644986E2,3.1007309E4,3.1000894E3,1.2604364E3,2.1995735E1,3.3571912E2,3.6931592E2,1.9101566E2,2.4148594E1,4.9382214E1,2.617994E2,5.7983E2,2.5717583E1,8.951001E1,3.255247E1,5.8464912E1,2.3353424E1,3.0684498E1,3.4890076E1,6.945894E1,2.0967957E2,2.0264776E1,9.073654E1,2.1129034E1,2.029864E1,5.6037164E2,2.3518438E1,3.170024E1,2.8658175E1,5.2702015E1,2.3412897E1,2.6895407E1,2.7398642E1,2.4424925E1,2.5291492E1,2.1825846E1,9.66671E1,4.473221E1,1.0284901E2,1.5295448E2,1.2207037E3,2.329362E1,3.2231995E1,2.7720889E4,3.2864207E3,2.9480188E3,1.5207039E2,1.202011E3,5.842542E1,2.3389174E1,3.1232993E2,4.4554592E1,3.2476132E2,4.0134853E1,1.508808E2,2.7078537E1,2.2303677E1,1.989003E2,6.28991E1,5.5445325E2,2.5376778E1,3.8963543E1,5.0546467E1,3.628955E1,2.2175364E1,2.0072842E1,4.9386097E1,2.8345222E1,1.8133435E2,5.1566595E2,4.4705727E1,2.9072563E1,2.3629452E1,6.844324E1,2.8223856E1,2.4631819E1,2.0100388E1,2.0428005E1,8.2421005E1,2.1492119E1,1.3146237E2,2.769865E4,2.2237457E1,2.989401E3,2.9701984E2,2.662166E3,2.8585275E2,1.2529322E2,2.677717E1,1.1702625E3,3.174856E1,3.709645E1,2.1328968E1,2.9139374E2,2.0936193E1,2.3260921E1,2.1293669E1,2.9791876E2,2.684256E1,2.0053623E1,2.0081232E1,2.2428104E1,1.284527E2,7.8038864E1,1.20861435E2,3.9542503E1,2.3356598E1,5.122255E2,4.222771E1,2.3638592E1,2.6907875E1,2.3220612E1,2.6165487E1,2.6321217E1,4.8934473E2,2.3795742E1,2.0909985E1,2.3883102E1,4.456014E1,1.029538E2,2.8508572E1,2.7673307E4,2.5343054E1,6.981896E1,2.9195818E3,2.4348569E2,5.353414E1,2.4038042E3,2.5836194E2,2.0197933E1,2.6565482E2,1.0520885E2,2.0084373E1,2.0298775E1,1.1499637E3,2.7105493E2,2.033881E1,2.5731717E2,4.0601604E1,1.08014404E2,2.0438284E1,5.5117043E1,2.2921818E1,3.378834E1,8.707309E1,2.2031496E1,2.0196213E1,4.6376434E2,2.5580374E1],"tree_param":{"num_deleted":"0","num_feature":"47","num_nodes":"239","size_leaf_vector":"0"}},{"base_weights":[-2.2074322E-1,6.528993E-1,-7.068202E-1,6.832231E-1,-5.4600954E-1,-1.9587258E-1,-7.230578E-1,6.962093E-1,1.656011E-1,5.7380426E-1,-6.7554116E-1,5.627854E-1,-5.693408E-1,-5.7799727E-1,-7.244921E-1,7.0335066E-1,2.67181E-1,5.177001E-1,-3.56719E-1,7.2430575E-1,8.599713E-2,2.4498178E-1,-6.9867873E-1,6.391401E-1,1.8203819E-1,1.1028637E-2,-6.3914573E-1,3.3880162E-1,-6.91384E-1,-6.803142E-1,-7.250215E-1,7.0550156E-1,9.8167524E-2,4.826117E-1,-1.7563593E-1,6.349599E-1,2.704151E-1,5.814992E-1,-4.4145745E-1,-3.7892473E-1,-7.218122E-1,6.6225994E-1,-1.4253034E-2,-4.5056173E-1,3.309145E-1,4.128823E-1,-2.6314804E-1,-3.48936E-1,-6.9034463E-1,6.105439E-1,-5.1912535E-2,-4.8176318E-1,-7.2291267E-1,2.8639287E-1,-7.223065E-1,7.0646954E-1,-2.6584142E-1,6.3436985E-1,-6.0144746E-1,6.654086E-1,2.945796E-1,4.672157E-1,-4.2635545E-1,6.8847334E-1,3.590005E-1,4.4382074E-1,-1.2895262E-1,2.5487265E-1,-5.3367984E-1,2.8868338E-1,-7.382104E-1,-5.532907E-1,-7.2801965E-1,6.957707E-1,3.5786927E-1,5.467616E-1,-4.0187437E-2,6.1857414E-1,8.876467E-2,2.6610145E-1,-4.409818E-1,1.9727905E-1,-4.9810147E-1,-5.330616E-1,-7.090784E-1,7.57434E-1,4.150838E-1,-9.7708754E-2,-6.3144344E-1,7.148047E-1,6.2222856E-1,7.1949065E-1,3.8489956E-1,-2.3878263E-1,-7.9332334E-1,7.064912E-1,4.9082744E-1,5.244422E-1,4.383831E-2,7.4797475E-1,2.439553E-1,-6.430664E-2,-5.9388745E-1,7.0110095E-1,4.8173645E-1,-2.025682E-2,5.9933007E-1,-8.92832E-2,5.4765576E-1,9.333676E-2,-4.7656396E-1,-3.2824352E-1,-6.68581E-1,4.6239176E-1,7.091634E-1,5.543824E-1,8.688503E-2,3.1219292E-1,7.265264E-1,-7.513886E-1,-2.1088912E-1,